/*
 * Copyright (c) 2026 EdgeImpulse Inc.
 *
 * Generated by Edge Impulse and licensed under the applicable Edge Impulse
 * Terms of Service. Community and Professional Terms of Service
 * (https://edgeimpulse.com/legal/terms-of-service) or Enterprise Terms of
 * Service (https://edgeimpulse.com/legal/enterprise-terms-of-service),
 * according to your product plan subscription (the “License”).
 *
 * This software, documentation and other associated files (collectively referred
 * to as the “Software”) is a single SDK variation generated by the Edge Impulse
 * platform and requires an active paid Edge Impulse subscription to use this
 * Software for any purpose.
 *
 * You may NOT use this Software unless you have an active Edge Impulse subscription
 * that meets the eligibility requirements for the applicable License, subject to
 * your full and continued compliance with the terms and conditions of the License,
 * including without limitation any usage restrictions under the applicable License.
 *
 * If you do not have an active Edge Impulse product plan subscription, or if use
 * of this Software exceeds the usage limitations of your Edge Impulse product plan
 * subscription, you are not permitted to use this Software and must immediately
 * delete and erase all copies of this Software within your control or possession.
 * Edge Impulse reserves all rights and remedies available to enforce its rights.
 *
 * Unless required by applicable law or agreed to in writing, the Software is
 * distributed on an "AS IS" BASIS, WITHOUT WARRANTIES OR CONDITIONS OF ANY KIND,
 * either express or implied. See the License for the specific language governing
 * permissions, disclaimers and limitations under the License.
 */
// Generated on: 18.04.2026 18:50:31

#include <stdio.h>
#include <stdlib.h>
#include "edge-impulse-sdk/tensorflow/lite/c/builtin_op_data.h"
#include "edge-impulse-sdk/tensorflow/lite/c/common.h"
#include "edge-impulse-sdk/tensorflow/lite/micro/micro_mutable_op_resolver.h"
#include "edge-impulse-sdk/porting/ei_classifier_porting.h"

#if EI_CLASSIFIER_PRINT_STATE
#if defined(__cplusplus) && EI_C_LINKAGE == 1
extern "C" {
    extern void ei_printf(const char *format, ...);
}
#else
extern void ei_printf(const char *format, ...);
#endif
#endif

#define STRINGIZE(x) #x
#define STRINGIZE_VALUE_OF(x) STRINGIZE(x)

#if defined (__GNUC__)  /* GNU compiler */
#define ALIGN(X) __attribute__((aligned(X)))
#define DEFINE_SECTION(x) __attribute__((section(x)))
#elif defined (_MSC_VER)
#define ALIGN(X) __declspec(align(X))
#elif defined (__TASKING__) /* TASKING Compiler */
#define ALIGN(X) __align(X)
#define DEFINE_SECTION(x) __attribute__((section(x)))
#elif defined (__ARMCC_VERSION) /* Arm Compiler */
#define ALIGN(X) __ALIGNED(x)
#define DEFINE_SECTION(x) __attribute__((section(x)))
#elif defined (__ICCARM__) /* IAR Compiler */
#define ALIGN(x) __attribute__((aligned(x)))
#define DEFINE_SECTION(x) __attribute__((section(x)))
#elif defined (__clang__) /* LLVM/Clang Compiler */
#define ALIGN(X) __ALIGNED(x)
#define DEFINE_SECTION(x) __attribute__((section(x)))
#endif

#if defined(EI_MODEL_SECTION) && (defined(__GNUC__) || defined(__clang__))
#define MODEL_SECTION(X) __attribute__((section(STRINGIZE_VALUE_OF(X))))
#else
#define MODEL_SECTION(X)
#endif

#ifndef EI_MAX_SCRATCH_BUFFER_COUNT
#ifndef CONFIG_IDF_TARGET_ESP32S3
#define EI_MAX_SCRATCH_BUFFER_COUNT 14
#else
#define EI_MAX_SCRATCH_BUFFER_COUNT 28
#endif // CONFIG_IDF_TARGET_ESP32S3
#endif // EI_MAX_SCRATCH_BUFFER_COUNT

#ifndef EI_MAX_OVERFLOW_BUFFER_COUNT
#define EI_MAX_OVERFLOW_BUFFER_COUNT 10
#endif // EI_MAX_OVERFLOW_BUFFER_COUNT

using namespace tflite;
using namespace tflite::ops;
using namespace tflite::ops::micro;

namespace {

#if defined(EI_CLASSIFIER_ALLOCATION_STATIC_HIMAX) || defined(EI_CLASSIFIER_ALLOCATION_STATIC_HIMAX_GNU)
constexpr int kTensorArenaSize = 242640;
#else
constexpr int kTensorArenaSize = 241616;
#endif

#if defined(EI_CLASSIFIER_ALLOCATION_STATIC)
#if defined (EI_TENSOR_ARENA_LOCATION)
uint8_t tensor_arena[kTensorArenaSize] ALIGN(16) DEFINE_SECTION(STRINGIZE_VALUE_OF(EI_TENSOR_ARENA_LOCATION));
#else
uint8_t tensor_arena[kTensorArenaSize] ALIGN(16);
#endif
#elif defined(EI_CLASSIFIER_ALLOCATION_STATIC_HIMAX)
#pragma Bss(".tensor_arena")
uint8_t tensor_arena[kTensorArenaSize] ALIGN(16);
#pragma Bss()
#elif defined(EI_CLASSIFIER_ALLOCATION_STATIC_HIMAX_GNU)
uint8_t tensor_arena[kTensorArenaSize] ALIGN(16) __attribute__((section(".tensor_arena")));
#else
#define EI_CLASSIFIER_ALLOCATION_HEAP 1
uint8_t* tensor_arena = NULL;
#endif

static uint8_t* tensor_boundary;
static uint8_t* current_location;

template <int SZ, class T> struct TfArray {
  int sz; T elem[SZ];
};

enum used_operators_e {
  OP_CONV_2D, OP_DEPTHWISE_CONV_2D, OP_PAD, OP_ADD, OP_SOFTMAX,  OP_LAST
};

struct TensorInfo_t { // subset of TfLiteTensor used for initialization from constant memory
  TfLiteAllocationType allocation_type;
  TfLiteType type;
  void* data;
  TfLiteIntArray* dims;
  size_t bytes;
  TfLiteQuantization quantization;
};

typedef struct {
  TfLiteTensor tensor;
  int16_t index;
} TfLiteTensorWithIndex;

typedef struct {
  TfLiteEvalTensor tensor;
  int16_t index;
} TfLiteEvalTensorWithIndex;

TfLiteContext ctx{};
static const int MAX_TFL_TENSOR_COUNT = 4;
static TfLiteTensorWithIndex tflTensors[MAX_TFL_TENSOR_COUNT];
static const int MAX_TFL_EVAL_COUNT = 4;
static TfLiteEvalTensorWithIndex tflEvalTensors[MAX_TFL_EVAL_COUNT];
TfLiteRegistration registrations[OP_LAST];

namespace g0 {
const TfArray<4, int> tensor_dimension0 = { 4, { 1,96,96,3 } };
const TfArray<1, float> quant0_scale = { 1, { 0.0039215688593685627, } };
const TfArray<1, int> quant0_zero = { 1, { -128 } };
const TfLiteAffineQuantization quant0 = { (TfLiteFloatArray*)&quant0_scale, (TfLiteIntArray*)&quant0_zero, 0 };
const MODEL_SECTION(EI_MODEL_SECTION) ALIGN(16) int32_t tensor_data1[4*2] = { 
  0, 0, 
  0, 1, 
  0, 1, 
  0, 0, 
};
const TfArray<2, int> tensor_dimension1 = { 2, { 4,2 } };
const MODEL_SECTION(EI_MODEL_SECTION) ALIGN(8) int32_t tensor_data2[2] = { 25642, -27159, };
const TfArray<1, int> tensor_dimension2 = { 1, { 2 } };
const TfArray<2, float> quant2_scale = { 2, { 0.00019152274762745947, 0.00018243094382341951, } };
const TfArray<2, int> quant2_zero = { 2, { 0,0 } };
const TfLiteAffineQuantization quant2 = { (TfLiteFloatArray*)&quant2_scale, (TfLiteIntArray*)&quant2_zero, 0 };
const MODEL_SECTION(EI_MODEL_SECTION) ALIGN(16) int8_t tensor_data3[2*1*1*32] = { 
  /* [0][0][][] */ 59,-47,-57,107,-71,1,-59,64,127,-33,-49,0,-23,70,-42,33,106,-90,-42,-105,96,71,86,-57,-60,-79,-61,77,10,-88,-14,64, 
  /* [1][0][][] */ 62,82,82,-71,-83,84,-9,15,-44,-21,41,108,124,48,33,-1,-44,3,-67,-98,-85,41,36,113,88,78,-53,-6,110,-116,-127,-18, 
};
const TfArray<4, int> tensor_dimension3 = { 4, { 2,1,1,32 } };
const TfArray<2, float> quant3_scale = { 2, { 0.003405802184715867, 0.0032441248185932636, } };
const TfLiteAffineQuantization quant3 = { (TfLiteFloatArray*)&quant3_scale, (TfLiteIntArray*)&g0::quant2_zero, 0 };
const MODEL_SECTION(EI_MODEL_SECTION) ALIGN(16) int32_t tensor_data4[32] = { 138, 192, 206, -127, -211, 198, -293, 62, -134, 64, 211, -392, 202, 156, -662, -362, -260, 578, -222, -358, -321, 163, -10, -155, -219, -170, -211, -263, -488, -155, 766, -308, };
const TfArray<1, int> tensor_dimension4 = { 1, { 32 } };
const TfArray<32, float> quant4_scale = { 32, { 4.4118522055214271e-05, 4.1983083065133542e-05, 4.2085164750460535e-05, 4.1374569264007732e-05, 4.179419920546934e-05, 4.099806392332539e-05, 4.1815372242126614e-05, 4.0902476030169055e-05, 4.1628270992077887e-05, 4.6942488552303985e-05, 4.094874020665884e-05, 4.0933144191512838e-05, 4.1549243178451434e-05, 4.1701274312799796e-05, 4.4456661271397024e-05, 4.2881729314103723e-05, 4.1939467337215319e-05, 4.5811160816811025e-05, 4.1384042560821399e-05, 4.1687086195452139e-05, 4.06177896365989e-05, 4.0197741327574477e-05, 4.488582635531202e-05, 4.5507269533118233e-05, 4.4894692109664902e-05, 4.3080835894215852e-05, 4.1268154745921493e-05, 4.0416987758362666e-05, 4.2877156374743208e-05, 4.0699571400182322e-05, 4.9250036681769416e-05, 4.2610095988493413e-05, } };
const TfArray<32, int> quant4_zero = { 32, { 0,0,0,0,0,0,0,0,0,0,0,0,0,0,0,0,0,0,0,0,0,0,0,0,0,0,0,0,0,0,0,0 } };
const TfLiteAffineQuantization quant4 = { (TfLiteFloatArray*)&quant4_scale, (TfLiteIntArray*)&quant4_zero, 0 };
const MODEL_SECTION(EI_MODEL_SECTION) ALIGN(16) int8_t tensor_data5[32*1*1*96] = { 
  /* [0][0][][] */ -32,-45,103,12,82,-17,-84,-99,63,-99,-103,1,59,14,-34,50,-54,-28,-84,-52,-64,-100,5,109,-127,10,77,-45,107,1,-18,-76,75,-57,-92,64,-110,-75,-92,28,76,-81,-92,103,49,-101,107,-18,16,-55,-27,97,-79,-45,-90,108,29,68,110,-107,-67,68,-44,37,-6,18,70,92,44,95,84,-109,101,-100,41,85,-99,14,-56,34,55,25,95,-2,-56,-37,-82,104,32,118,-16,-107,19,58,33,16, 
  /* [1][0][][] */ -51,39,-71,4,-52,76,43,14,90,-106,-102,114,76,-20,29,69,112,-38,19,127,-41,-2,40,33,16,25,-38,113,13,13,107,-61,56,113,-8,32,50,68,-7,-62,-59,11,-18,-93,-34,45,-27,-53,-23,-85,126,67,6,93,-77,-44,33,108,49,86,-50,104,-62,-91,-56,42,82,49,98,34,21,16,-110,102,-50,53,93,-46,-37,80,-78,97,-46,-112,34,125,-66,-60,88,90,88,32,94,87,37,-5, 
  /* [2][0][][] */ 55,43,-60,102,-28,-66,95,102,-94,87,-31,124,101,-8,88,-112,-59,-23,17,61,-92,-12,117,27,-43,88,111,13,-68,89,87,102,-75,-14,-93,-106,-91,102,115,-23,-114,-73,19,0,-83,127,-21,-76,104,42,100,-83,-52,71,26,25,-66,103,-68,6,-8,47,-30,62,97,53,53,95,-106,74,12,-68,40,-69,34,34,-48,-24,10,15,43,-88,-3,-35,6,-94,-15,-25,99,122,-32,13,-37,-92,-39,-69, 
  /* [3][0][][] */ 75,0,40,-27,-36,69,-118,40,51,27,66,1,94,99,76,8,110,101,-37,12,118,-92,-67,-120,-4,-119,-86,111,47,-106,89,6,-57,-38,-17,-15,-92,-27,41,48,-28,-98,-103,0,75,28,-51,-88,70,-88,41,-3,103,28,92,-106,-123,-124,-123,-57,-104,49,-40,84,60,-37,-64,-36,-16,-75,3,103,20,-111,60,-52,31,103,99,-68,-95,-127,36,94,29,46,-46,-126,-89,44,5,-115,95,-98,-97,43, 
  /* [4][0][][] */ 48,100,-2,51,-27,12,29,12,58,88,-12,47,23,-43,-15,-70,-23,-8,-48,11,104,-95,86,23,-3,-7,62,-61,-50,31,-72,-59,75,113,20,-109,-48,-11,-120,47,-55,-67,-80,-97,32,103,32,56,21,-45,-24,-83,-84,41,-90,15,32,-102,41,12,1,-66,-43,-58,-50,52,-1,-41,35,-108,-101,-90,-60,15,102,51,57,-24,-11,-62,1,-52,-106,-26,-4,67,89,-4,-127,-82,58,41,24,110,-106,-17, 
  /* [5][0][][] */ 108,-91,83,92,33,-127,32,62,117,-122,3,-66,31,109,41,39,64,67,-96,107,39,57,21,-24,-127,-61,-13,-93,52,38,21,-99,-44,7,-73,21,-123,-33,53,26,-88,-50,47,107,-33,31,40,-52,-111,111,33,38,35,23,39,-17,116,56,-60,-42,41,-85,44,-84,-30,111,-25,34,67,5,110,-68,-45,86,-30,-72,16,-49,17,92,115,52,36,119,-81,89,-2,46,77,-98,115,99,-11,19,83,-88, 
  /* [6][0][][] */ 14,-50,113,74,-84,-64,-5,64,-18,-87,3,-93,84,52,115,-124,40,-1,20,101,-84,-125,109,57,-55,-87,-12,-61,-30,-120,44,-83,-92,-127,-47,-111,-11,37,-114,80,85,54,20,-20,-118,104,-94,-49,-88,16,-31,-71,63,-60,94,-31,5,-11,-69,113,-103,10,65,-73,-55,64,100,-52,85,-8,-111,-9,54,-73,-94,-45,-86,-107,-61,-33,31,-33,40,-31,-77,-93,-44,-101,82,93,103,13,-58,-68,74,-28, 
  /* [7][0][][] */ 123,77,-38,-45,-83,116,-20,-5,124,4,-100,13,58,-89,50,73,55,21,-27,121,60,37,-5,91,-83,105,44,59,-84,111,-20,42,22,27,64,108,-113,96,-20,-32,104,-77,90,77,56,1,111,-116,58,-63,-112,-71,-37,92,22,34,127,-93,4,-62,13,-18,88,-127,-70,-56,70,21,-122,17,69,94,92,22,63,62,-64,58,-104,52,98,-35,-17,-76,93,38,-115,100,88,9,85,73,-55,-50,-1,-75, 
  /* [8][0][][] */ 5,30,-46,-98,70,48,-81,-26,1,40,41,93,-5,-52,-90,-76,-69,94,-45,13,25,-28,82,110,-99,90,43,77,-71,13,-98,115,101,-39,51,-5,123,-2,-25,70,78,101,-119,-127,-13,-36,-29,111,20,-97,-74,-8,-60,-14,-35,-119,47,105,-94,107,107,59,39,121,-35,-53,-24,99,-74,49,31,-8,73,64,12,20,-55,109,82,73,33,76,-123,-96,22,38,72,-50,32,-46,-77,98,-91,-90,-56,66, 
  /* [9][0][][] */ -1,4,111,45,100,-80,-42,-102,40,57,-8,52,-26,-75,-92,-9,14,0,-67,-63,0,95,-94,-95,127,-6,-11,29,-5,-53,-82,88,74,-1,35,-20,-53,11,-20,-36,41,-62,51,-90,75,15,-98,53,52,-6,-79,-47,83,-72,-65,91,76,-53,4,7,-86,115,72,-66,-82,3,101,47,-23,96,104,-87,9,74,-96,-83,-75,-101,-34,101,29,22,89,23,-40,-91,37,-18,88,28,-17,96,97,5,52,-25, 
  /* [10][0][][] */ -56,92,99,-63,-27,103,118,36,49,31,31,-64,115,93,-31,15,-37,89,-121,-59,-12,34,63,-67,14,65,-118,-115,-48,92,-92,-80,84,112,127,80,-46,12,-25,41,-32,126,-111,-33,-100,-53,2,-60,0,5,49,18,61,30,-64,-28,-102,-10,28,-47,6,69,123,35,127,-73,-98,-16,13,-15,-96,-64,97,78,-88,119,-8,69,75,29,86,10,67,117,-101,77,111,-19,45,17,-13,-65,-46,-61,-38,-69, 
  /* [11][0][][] */ 117,10,-27,100,116,29,46,23,109,90,-89,105,-16,-89,19,-78,-75,-115,49,32,29,68,16,-125,-127,-114,-33,59,64,-13,20,-27,-105,-78,38,47,-82,76,-41,-73,-32,104,-85,-1,-51,-65,-98,-105,71,91,121,43,-117,-97,7,21,-83,-63,-44,-105,-78,75,72,-1,15,85,-71,20,75,53,-99,-77,34,101,-109,43,-83,25,-58,86,-121,-29,-84,-49,39,-89,6,-32,-107,-15,-8,-107,-89,-52,-86,-54, 
  /* [12][0][][] */ 21,76,-54,8,82,2,-31,41,-72,61,-9,21,-38,20,55,-79,-102,-29,-68,-77,35,-6,21,106,-87,-44,109,-99,99,22,-31,126,-93,-66,-45,20,-5,-72,-12,49,125,46,-109,-35,-18,-78,-35,124,-43,-116,-71,115,34,8,-81,96,-15,-55,52,71,70,104,1,48,119,41,-43,127,49,110,46,81,93,125,-16,-1,-29,38,-115,-91,-54,116,56,23,-32,39,61,126,-89,-105,89,51,113,-22,38,78, 
  /* [13][0][][] */ 119,-56,108,104,88,113,87,68,80,-106,16,-25,99,80,72,-49,-120,-68,-94,34,76,-25,124,-44,-81,45,10,22,-89,-87,90,44,38,112,-22,42,-88,-25,26,73,-60,84,-50,19,-41,36,2,-28,38,106,-29,-104,-108,36,108,-78,-43,34,-24,-76,-20,109,-73,7,-51,-60,-93,92,-47,-11,102,4,-89,41,-77,-39,-102,72,88,-59,58,-91,105,27,-81,-100,99,127,-5,-48,-83,62,124,-60,75,-8, 
  /* [14][0][][] */ -56,-109,70,52,64,-43,-31,-124,-90,-49,52,67,-31,-95,-103,-95,-66,-73,-2,13,-54,17,-17,44,-122,-84,-46,15,-126,-124,-87,29,86,-36,-47,-4,78,105,21,-123,-13,-120,24,71,50,-115,60,-97,97,24,75,43,79,-21,-31,0,-63,8,42,79,-22,-94,-36,57,-98,-27,60,-118,-96,-94,-97,81,-5,65,33,-86,38,-119,38,21,29,-34,-127,-43,-127,-101,-121,92,91,-6,71,-54,68,88,-22,60, 
  /* [15][0][][] */ 9,-31,-34,66,93,-91,55,-106,52,-6,-77,2,99,-4,-96,-118,85,6,-89,18,41,13,67,102,103,60,33,87,15,49,59,-106,4,1,-70,-9,-70,107,98,-75,11,107,-55,-30,21,-85,-49,-85,-11,-86,-11,23,-104,-108,-55,-14,63,46,-48,105,-52,-61,-5,105,-39,91,-78,-5,-62,-2,57,-79,12,-23,56,-114,-8,51,99,74,-88,51,-115,-70,-127,-42,-98,30,78,63,-115,-45,48,111,-114,108, 
  /* [16][0][][] */ -80,-3,103,-70,53,122,-61,32,42,51,-116,65,-24,-57,-58,-66,110,77,88,60,106,77,-43,47,-12,47,-75,61,-107,5,35,7,-103,72,53,58,-32,50,-64,-77,18,-52,68,87,63,97,99,-16,-60,-117,-3,105,-39,111,66,38,23,85,75,12,109,127,29,73,53,7,-42,86,56,93,-36,-16,24,84,65,83,-19,100,-117,-18,9,-94,51,3,6,97,99,2,72,6,-6,109,63,-25,-95,24, 
  /* [17][0][][] */ 57,-113,30,100,-61,-121,-43,-68,62,-94,97,73,117,76,-92,69,24,47,113,125,-70,4,26,-29,-11,88,-56,45,120,-28,-9,75,-48,-4,54,-4,-62,95,-58,-7,-87,-32,7,-3,-8,30,90,-101,67,122,8,44,4,92,82,-50,-120,102,-98,-91,50,-111,78,77,-76,-51,60,-73,-110,25,120,39,32,-87,-75,82,127,-46,58,-56,20,8,-52,-66,-89,81,95,-12,39,91,-101,-106,10,70,34,37, 
  /* [18][0][][] */ -103,99,107,-76,-10,-116,-111,1,-10,72,-115,-52,-42,31,58,-63,18,-29,56,-28,100,-51,18,-86,39,-104,-22,110,27,31,-4,40,43,-33,-116,-114,-37,31,-40,61,-46,-5,-56,-14,-122,12,22,-8,14,-29,69,27,-116,-13,-1,85,-49,32,-18,-125,83,110,9,33,-74,-127,-36,87,67,-84,-78,108,-104,-44,-95,-111,52,53,-6,-81,-62,-12,-33,-73,101,-39,69,66,-116,-82,-69,105,86,-60,46,-20, 
  /* [19][0][][] */ 15,26,74,35,61,-90,94,89,91,-67,25,-16,-102,30,-61,57,72,-111,122,55,-27,78,-61,9,82,-86,26,-73,-97,-125,-71,43,82,-89,31,-5,6,-75,-62,-107,41,-122,-89,6,-91,26,74,-99,-31,34,-45,42,-37,10,3,-14,21,96,13,-32,52,-45,99,62,-75,-7,-31,-5,-10,50,73,-55,-67,-127,-59,-86,-28,-119,11,105,55,-122,-35,75,-93,-11,4,-9,87,26,0,63,-38,114,67,-54, 
  /* [20][0][][] */ -17,69,70,93,-85,104,15,56,10,13,-95,-2,-13,86,38,-80,-55,-43,-47,-38,19,-51,-84,-79,100,-82,-114,47,21,8,-47,113,111,41,-17,55,45,-39,-23,-118,-93,-41,-99,-112,-33,-73,-78,108,64,-127,-113,36,55,111,51,-6,94,72,101,91,111,-43,-75,-31,-31,-75,-57,10,-78,-86,-75,78,-72,-95,32,16,110,78,111,108,86,-1,83,-32,58,116,-20,72,15,95,37,64,18,30,-11,0, 
  /* [21][0][][] */ 104,85,78,-106,95,-96,80,18,1,-71,-74,47,9,45,-52,-98,-111,-29,6,-10,119,-50,77,-86,45,-90,-32,79,15,7,-5,-18,1,25,-101,-119,115,108,-127,-35,-4,11,33,-10,-102,-83,-82,100,-24,-74,-1,96,30,77,-98,33,-52,58,-55,127,65,-95,18,-24,88,37,-37,-74,-125,-3,64,87,39,-22,75,74,-115,-31,69,116,17,112,41,-73,29,-99,71,-85,-108,88,108,-116,-43,-81,76,-36, 
  /* [22][0][][] */ 33,-51,-70,-91,70,-63,105,55,-90,79,-71,-109,112,-104,-109,-87,36,81,-120,-62,88,-71,30,31,72,-1,-115,97,-62,-85,-63,-110,48,61,13,12,-1,-14,-57,-112,2,-13,2,92,54,-110,89,-21,-59,-86,13,-16,-76,-85,-50,37,-14,-27,-36,-30,111,-79,-75,-127,-60,19,-109,-42,100,100,-27,-1,-65,9,64,-88,44,-51,63,92,103,-89,-67,-111,76,81,95,-30,-50,34,-70,46,25,14,-22,92, 
  /* [23][0][][] */ 61,-89,-4,52,77,-127,-1,-101,52,-87,77,70,23,-101,12,-44,76,-36,-120,91,90,-82,92,-36,-33,-15,74,14,61,49,65,-45,-47,38,11,25,82,-10,-112,0,-103,-4,5,-106,-75,-84,103,19,66,-107,-76,-49,66,-59,-61,86,-87,-19,76,36,-100,-102,-53,-23,23,33,-116,-107,46,-18,101,-68,-8,-39,-47,-95,44,-28,84,106,-54,-43,25,-97,84,3,104,-20,-84,40,86,-25,104,-63,-25,69, 
  /* [24][0][][] */ -80,-50,-105,-81,-86,-122,-71,-96,57,112,77,42,110,56,-41,-127,-84,36,10,-46,91,-83,-60,-40,36,-29,67,51,99,55,0,-57,-13,2,33,24,-56,-83,53,-28,-73,-99,95,4,17,-34,36,65,-97,-48,-18,16,58,48,68,-69,-7,66,17,-9,88,-13,39,79,-105,91,-51,-93,-113,46,-62,-28,-37,40,88,92,60,-79,-105,-93,-80,-87,-60,-110,-2,61,-19,-95,24,-104,-3,-80,-16,12,-88,21, 
  /* [25][0][][] */ -97,-63,-82,-10,86,-90,-108,45,44,-118,-40,17,72,-4,-118,-25,-85,57,14,-124,64,79,-17,-63,2,-54,-104,33,65,-88,37,117,79,-110,33,63,92,-70,-30,-22,-91,94,-108,1,87,44,49,26,-112,74,-66,2,36,-18,-65,0,-30,45,-108,67,121,25,44,39,-16,73,-24,-14,-107,-8,-31,-119,35,-127,54,19,71,67,11,21,41,53,-55,85,-82,-54,-108,-90,-30,-37,90,22,-117,-31,-21,-91, 
  /* [26][0][][] */ 53,-124,-23,-17,-93,1,-13,-15,-114,-126,108,88,-86,-53,9,-14,119,29,-59,-72,10,74,103,12,73,64,11,48,14,3,-98,-5,-27,-66,-100,-107,-65,86,-53,114,-105,104,57,30,-76,72,-45,106,-23,31,-10,101,19,-52,-5,-113,98,64,61,27,-3,-84,64,-13,118,-23,-59,59,-80,82,90,97,81,-102,-89,7,45,-112,-102,8,-32,73,82,-81,81,-2,-48,11,-89,115,19,15,-63,127,49,96, 
  /* [27][0][][] */ 8,6,-70,-112,-119,-79,-77,-21,41,102,35,-117,-33,56,83,-35,66,-21,66,-92,-103,8,-34,-29,-91,44,-118,-7,65,26,-38,-14,62,69,-100,-95,-98,-72,-123,90,-104,15,25,14,100,22,68,105,92,68,59,-83,-98,-95,-10,-40,105,-29,-122,-86,-64,-68,-40,54,38,-53,-122,107,48,6,-127,5,61,-60,-12,-96,46,-73,89,105,86,-32,119,-63,-82,-91,-39,29,-55,-8,-40,-57,55,15,88,55, 
  /* [28][0][][] */ 80,-13,75,32,-115,-64,-110,-87,-50,-109,47,64,-80,-96,-9,88,81,100,-72,71,-36,11,-120,-87,-127,69,-96,-71,-77,-76,-13,-20,-114,5,68,65,6,-119,-49,18,92,30,-105,39,-119,-21,2,36,11,-64,-80,-40,-90,12,46,32,55,-24,74,40,-10,-53,-98,-5,52,61,-34,70,-81,16,-115,-51,58,31,-10,-112,-122,-76,-98,33,-85,-102,104,-41,50,-123,53,-92,-111,-81,-46,-67,-43,48,-101,-77, 
  /* [29][0][][] */ 51,54,60,-57,-83,32,-124,6,101,-11,-95,-101,107,-112,-51,-46,-101,106,52,-69,-83,-35,58,4,-17,6,-47,-29,-106,-11,107,-6,60,0,-77,-59,-6,106,-11,99,49,111,-49,84,0,107,-58,-26,19,-5,56,-101,83,-107,117,45,-100,56,-47,116,-127,116,-101,-42,-63,-69,56,92,116,-90,35,-78,114,79,67,26,118,-64,-33,33,-7,-92,-13,-84,66,120,45,79,-42,99,83,82,-112,28,-6,68, 
  /* [30][0][][] */ 32,-37,-29,42,-69,51,-38,2,110,15,14,-22,-78,23,71,17,23,50,102,-65,45,-69,-77,31,-76,33,-44,127,11,-71,-67,26,-47,-47,-87,-26,42,1,9,33,93,-50,3,107,110,-27,102,72,-37,84,12,-71,106,-31,17,104,-44,-49,-46,-29,-93,25,-42,1,-72,-60,-64,87,-32,109,56,-19,-79,108,61,-54,-29,-38,-48,-41,47,21,-86,-9,-75,42,-91,107,-19,-87,97,66,-26,19,13,-49, 
  /* [31][0][][] */ 78,-97,34,97,73,62,-64,-105,-35,-21,-84,-92,97,-127,-52,109,-64,-94,51,47,61,33,-34,104,69,-118,33,37,-74,-78,44,106,20,17,-95,-9,99,-35,-73,-116,57,-73,-35,29,3,-59,-43,22,70,25,91,-33,-110,-62,-84,21,-122,66,12,112,-43,17,84,-60,68,109,-49,-83,75,-125,-124,7,-101,-46,2,2,-63,-50,47,90,-80,-46,54,69,53,94,-99,13,15,-56,-84,-59,9,105,-8,-24, 
};
const TfArray<4, int> tensor_dimension5 = { 4, { 32,1,1,96 } };
const TfArray<32, float> quant5_scale = { 32, { 0.0018750372109934688, 0.0017842809902504086, 0.001788619440048933, 0.0017584190936759114, 0.0017762534553185105, 0.0017424176912754774, 0.0017771533457562327, 0.0017383552622050047, 0.0017692014807835221, 0.001995055703446269, 0.0017403214005753398, 0.0017396586481481791, 0.0017658427823334932, 0.0017723041819408536, 0.0018894081003963947, 0.001822473481297493, 0.0017824273090809584, 0.0019469743128865957, 0.0017588217742741108, 0.0017717011505737901, 0.0017262559849768877, 0.0017084040446206927, 0.0019076475873589516, 0.0019340588478371501, 0.0019080244237557054, 0.0018309354782104492, 0.0017538964748382568, 0.0017177219269797206, 0.0018222791841253638, 0.0017297317972406745, 0.0020931265316903591, 0.0018109290394932032, } };
const TfLiteAffineQuantization quant5 = { (TfLiteFloatArray*)&quant5_scale, (TfLiteIntArray*)&g0::quant4_zero, 0 };
const MODEL_SECTION(EI_MODEL_SECTION) ALIGN(16) int32_t tensor_data6[96] = { -1743, 2372, 6038, 1902, -2213, -2596, 13792, 1433, 1872, -1152, 8347, -167, -6359, 1694, 9860, 3581, 10085, 3772, -2540, -4038, 3295, 20977, 17129, 11646, 1041, 920, 2948, 2382, 1501, -3586, 5830, -2110, -218, 2517, 12, 681, 7526, 3425, -1180, 3225, 6211, 4549, 3593, 8601, 2862, 4212, 1584, 5336, 3359, -3353, -4835, 442, -230, -680, 1519, 10, 178, -720, -3477, 8033, -735, 984, -782, -1157, -2142, 5816, 18293, 1335, -1713, 561, 1088, 1446, 1145, -784, 545, 7309, -389, 14087, 12552, -637, 5875, 1187, -383, 1302, 9599, 5525, 2907, 1114, 4437, 2757, -359, -6754, 637, -1141, -1210, -1374, };
const TfArray<1, int> tensor_dimension6 = { 1, { 96 } };
const TfArray<96, float> quant6_scale = { 96, { 0.00035321069299243391, 0.00065909692784771323, 0.00039462998392991722, 0.00046239150105975568, 0.00048347649862989783, 0.00055803434224799275, 0.00024134070554282516, 0.00050157017540186644, 0.00031443193438462913, 0.00056020851479843259, 0.00023669812071602792, 0.00041267962660640478, 0.00039878764073364437, 0.0016619645757600665, 0.00031433519325219095, 0.00032676814589649439, 0.0001839487231336534, 0.0003828253538813442, 0.00075862300582230091, 0.00041981603135354817, 0.00017746056255418807, 0.00012870068894699216, 0.00017957792442757636, 0.00014542479766532779, 0.00020997914543841034, 0.00056129071163013577, 0.00101331842597574, 0.00044993683695793152, 0.00034938787575811148, 0.00054723391076549888, 0.00025337666738778353, 0.00036794980405829847, 0.00027084647445008159, 0.00046036133426241577, 0.0004863097274210304, 0.00036444078432396054, 0.00025217610527761281, 0.00031218177173286676, 0.00051262031774967909, 0.00055713020265102386, 0.00020643450261559337, 0.00057044735876843333, 0.0004191665502730757, 0.0002703650388866663, 0.00066873442847281694, 0.0002384014951530844, 0.00031408120412379503, 0.00040437438292428851, 0.00039729053969494998, 0.00038502865936607122, 0.00032227215706370771, 0.00023651568335480988, 0.00069665961200371385, 0.00044489625724963844, 0.00051003764383494854, 0.00054775789612904191, 0.00051418604562059045, 0.00038796346052549779, 0.00045141120790503919, 0.00022921813069842756, 0.0010207078885287046, 0.00065097707556560636, 0.00037292420165613294, 0.00067787047009915113, 0.00087012047879397869, 0.00033094000536948442, 0.00012013358355034143, 0.000310760602587834, 0.00068381591700017452, 0.00060357496840879321, 0.00037291288026608527, 0.00035401215427555144, 0.0011857858626171947, 0.00051644066115841269, 0.00032568769529461861, 0.00029984849970787764, 0.00035957660293206573, 0.00013313292583916336, 0.00014370983990374953, 0.00033156402059830725, 0.00024623062927275896, 0.00028840964660048485, 0.00020539858087431639, 0.00019864195201080292, 0.00018831736815627664, 0.00043025307240895927, 0.00080120388884097338, 0.00026297243312001228, 0.0001601489057065919, 0.00074071012204512954, 0.0002710416738409549, 0.00029472089954651892, 0.00035915503394789994, 0.00090428517432883382, 0.00050499662756919861, 0.00029287813231348991, } };
const TfArray<96, int> quant6_zero = { 96, { 0,0,0,0,0,0,0,0,0,0,0,0,0,0,0,0,0,0,0,0,0,0,0,0,0,0,0,0,0,0,0,0,0,0,0,0,0,0,0,0,0,0,0,0,0,0,0,0,0,0,0,0,0,0,0,0,0,0,0,0,0,0,0,0,0,0,0,0,0,0,0,0,0,0,0,0,0,0,0,0,0,0,0,0,0,0,0,0,0,0,0,0,0,0,0,0 } };
const TfLiteAffineQuantization quant6 = { (TfLiteFloatArray*)&quant6_scale, (TfLiteIntArray*)&quant6_zero, 0 };
const MODEL_SECTION(EI_MODEL_SECTION) ALIGN(16) int8_t tensor_data7[96*1*1*16] = { 
  /* [0][0][][] */ -23,83,-10,-127,-36,-36,-29,-68,-22,14,-2,71,25,-63,-13,53, 
  /* [1][0][][] */ -39,23,-58,1,-24,-24,23,-79,66,56,-54,22,-1,7,44,-127, 
  /* [2][0][][] */ -10,18,-26,50,35,30,-54,-47,127,-17,5,21,-27,96,-58,10, 
  /* [3][0][][] */ 53,-67,-4,-112,14,-37,-3,-10,103,-4,65,34,3,33,7,127, 
  /* [4][0][][] */ -91,53,8,44,11,-23,-8,40,9,9,20,-27,-127,-21,-30,29, 
  /* [5][0][][] */ 2,63,127,1,26,77,-68,89,-42,63,-20,-34,34,-27,-115,25, 
  /* [6][0][][] */ 42,-61,105,-127,40,-8,-36,84,-78,-105,45,-40,12,76,-31,84, 
  /* [7][0][][] */ 46,112,-36,-68,107,5,-5,-60,127,89,-34,14,37,-31,55,55, 
  /* [8][0][][] */ 6,-84,13,-78,29,-50,11,-68,28,63,74,-3,11,127,82,51, 
  /* [9][0][][] */ 4,-28,-1,127,33,-4,41,-56,-60,112,33,-18,-9,-55,-2,-10, 
  /* [10][0][][] */ -10,34,-41,-127,8,2,8,33,36,-49,21,-24,-18,-32,2,29, 
  /* [11][0][][] */ 7,15,18,-25,81,-38,93,-69,-94,35,-6,26,6,127,-82,-28, 
  /* [12][0][][] */ 70,-10,-127,-24,19,-81,14,10,7,41,-69,-53,-25,103,-13,39, 
  /* [13][0][][] */ -20,6,-22,14,10,-127,-10,21,8,-7,8,7,10,-16,5,3, 
  /* [14][0][][] */ 33,-34,89,-39,64,-3,-127,-103,-25,-50,22,11,17,-73,-30,-26, 
  /* [15][0][][] */ -53,14,-25,-54,-1,-11,127,33,-44,24,56,-37,21,66,42,15, 
  /* [16][0][][] */ 6,66,127,97,-7,26,80,64,-80,17,-61,1,6,16,17,-87, 
  /* [17][0][][] */ -45,-110,-11,35,-78,-20,-64,17,-127,-30,18,-44,-7,47,68,-42, 
  /* [18][0][][] */ 11,47,5,54,37,5,26,-14,59,30,-32,-28,14,127,59,24, 
  /* [19][0][][] */ 17,-29,32,8,101,11,-91,-56,-102,-79,-44,-127,-30,-51,-10,-31, 
  /* [20][0][][] */ 75,-27,-60,-12,-6,-92,21,39,-68,63,-127,8,2,-1,31,-36, 
  /* [21][0][][] */ 57,-7,74,-9,-14,10,-13,94,-3,-81,77,41,-13,127,58,68, 
  /* [22][0][][] */ -15,36,-53,127,-66,-6,103,69,-15,47,-22,32,9,-6,18,7, 
  /* [23][0][][] */ 70,-16,85,-92,44,-24,-12,37,4,4,-5,-28,12,-25,-127,32, 
  /* [24][0][][] */ -127,36,13,-23,-2,116,36,-23,0,14,114,-10,-78,27,71,-24, 
  /* [25][0][][] */ 30,20,17,17,7,6,64,-54,-6,-127,-16,-23,-8,-32,9,25, 
  /* [26][0][][] */ -34,-9,-8,1,-49,-16,-38,-44,-120,-40,-1,-42,15,127,-44,60, 
  /* [27][0][][] */ -8,32,11,68,34,-25,-19,-27,57,11,-23,3,3,127,-5,9, 
  /* [28][0][][] */ 21,65,52,57,127,-15,35,31,-96,-26,-56,-41,25,86,37,-30, 
  /* [29][0][][] */ 5,-7,3,11,25,-5,10,32,-23,-16,-19,-127,3,-19,-23,9, 
  /* [30][0][][] */ -15,76,-54,68,-34,-23,42,-127,-45,52,-20,-7,60,28,71,88, 
  /* [31][0][][] */ -46,-16,-5,-64,2,7,-58,-114,24,91,-7,-127,-41,-42,11,15, 
  /* [32][0][][] */ -127,-73,-6,61,47,40,-13,13,1,-43,-97,48,68,7,67,67, 
  /* [33][0][][] */ -8,-48,-48,-10,-84,-15,-80,0,62,18,11,-52,35,-127,119,33, 
  /* [34][0][][] */ 45,-3,72,29,47,22,-51,90,-82,-44,73,27,9,-2,-13,127, 
  /* [35][0][][] */ -39,51,-80,15,-6,-27,27,-125,88,92,-90,-1,11,-13,76,-127, 
  /* [36][0][][] */ -49,52,28,127,28,40,118,29,-3,34,-18,1,-25,39,-58,-69, 
  /* [37][0][][] */ -3,-3,20,-68,-10,4,-43,-55,-79,-6,8,-4,-5,-127,76,-44, 
  /* [38][0][][] */ 53,91,-17,-60,127,-8,38,-49,116,69,-22,-10,17,-34,43,23, 
  /* [39][0][][] */ -22,56,-12,-127,-23,3,-36,25,39,-73,-26,-23,17,62,36,33, 
  /* [40][0][][] */ -14,-23,34,-86,-6,-3,-19,-34,-127,11,-3,-17,-21,-113,111,-83, 
  /* [41][0][][] */ -11,-13,-40,-20,-6,-28,23,-15,-29,16,-41,-6,-127,17,33,32, 
  /* [42][0][][] */ 127,94,-26,-18,-88,-46,-21,-56,6,31,93,-49,-71,55,112,-123, 
  /* [43][0][][] */ -31,119,-59,12,66,1,102,-30,59,113,-35,10,1,-127,-51,-73, 
  /* [44][0][][] */ -31,-8,15,-33,55,11,-94,-127,-14,-4,19,11,-11,-28,83,-70, 
  /* [45][0][][] */ -18,50,-127,-47,13,-58,31,-77,-4,35,12,-64,15,-30,59,-27, 
  /* [46][0][][] */ 7,-1,-21,-86,-8,11,20,-30,-119,-22,7,17,-11,-127,63,-35, 
  /* [47][0][][] */ 19,52,28,-12,127,-11,-31,21,-52,44,3,26,1,6,120,-31, 
  /* [48][0][][] */ -127,-67,-17,40,58,20,9,-12,3,-6,-100,44,54,11,78,42, 
  /* [49][0][][] */ 26,20,82,58,112,-11,54,13,-127,-67,-40,-88,22,113,18,-38, 
  /* [50][0][][] */ 31,-13,-80,-5,32,-127,-44,-5,-11,-19,1,-37,41,-6,-13,16, 
  /* [51][0][][] */ 11,33,37,8,25,-1,2,22,-127,56,3,-120,16,-123,-32,93, 
  /* [52][0][][] */ 7,65,-1,57,49,-6,33,22,76,85,-27,-63,48,127,57,30, 
  /* [53][0][][] */ -4,-53,-24,-19,-83,-12,-78,1,45,20,12,-58,31,-127,113,18, 
  /* [54][0][][] */ 50,-8,-39,16,127,91,-125,-42,-77,1,-28,-72,-7,-36,-5,-47, 
  /* [55][0][][] */ 54,-12,-1,-2,42,-47,-67,-127,-32,-70,-62,5,-1,-29,12,-3, 
  /* [56][0][][] */ -21,17,27,-18,-4,-21,-94,70,-6,127,1,-10,24,9,1,4, 
  /* [57][0][][] */ -6,22,-43,-17,-58,-47,127,96,-23,33,-8,2,24,28,127,-15, 
  /* [58][0][][] */ 38,36,-127,50,94,120,-47,50,-101,-27,-14,21,-47,21,-3,-43, 
  /* [59][0][][] */ -109,76,118,27,-75,-63,126,127,26,10,36,-12,12,17,82,-4, 
  /* [60][0][][] */ 8,-3,-45,0,24,-127,-23,2,-15,-21,-12,-23,25,-11,8,6, 
  /* [61][0][][] */ 23,-7,19,127,79,19,25,2,-105,2,12,39,-12,13,32,-56, 
  /* [62][0][][] */ -50,127,12,-40,-26,-4,-68,56,-16,-58,-74,-47,-12,-86,-47,-40, 
  /* [63][0][][] */ -43,30,-29,127,-80,11,-69,-32,-64,-23,-24,-40,23,56,38,36, 
  /* [64][0][][] */ 13,-2,0,36,3,5,-15,57,21,-1,-20,-46,-6,-127,43,1, 
  /* [65][0][][] */ -11,-45,1,-127,36,-46,59,-36,-10,43,5,-122,-7,-10,13,-43, 
  /* [66][0][][] */ 53,-17,67,-43,-4,-17,-6,97,-3,-95,40,21,13,127,14,109, 
  /* [67][0][][] */ 3,44,-21,-127,-9,-7,-59,29,76,-98,-31,-10,33,72,67,38, 
  /* [68][0][][] */ -29,34,127,12,17,2,-8,-2,-46,-20,-23,-39,17,-29,81,-35, 
  /* [69][0][][] */ 127,69,-23,-9,-76,-41,-23,-44,-1,12,80,-61,-52,46,56,-85, 
  /* [70][0][][] */ 45,3,-61,-14,-27,23,57,127,-38,91,-40,2,17,58,-34,23, 
  /* [71][0][][] */ 4,0,-1,12,1,-72,3,25,-38,21,-73,10,-127,5,45,44, 
  /* [72][0][][] */ 9,23,-127,15,0,15,30,96,-39,-25,11,-7,22,17,0,6, 
  /* [73][0][][] */ -42,17,35,0,44,-40,-74,-127,17,-74,32,-21,18,-49,34,-11, 
  /* [74][0][][] */ -3,37,41,127,14,-3,-78,89,-64,19,-44,46,17,-112,40,-94, 
  /* [75][0][][] */ -8,12,-49,12,10,-12,7,-14,127,31,-17,-9,18,123,-45,4, 
  /* [76][0][][] */ -3,-11,1,21,5,-10,-13,64,18,-28,-17,-127,-8,-3,12,10, 
  /* [77][0][][] */ -16,17,-21,127,-53,22,78,106,21,54,-5,35,-13,-27,-16,-21, 
  /* [78][0][][] */ -6,12,37,-97,61,-23,-44,51,34,-49,15,-27,18,127,27,32, 
  /* [79][0][][] */ -24,-85,-69,-49,-79,-1,19,-72,127,26,29,60,12,41,48,-57, 
  /* [80][0][][] */ -60,-2,127,-65,38,-19,-15,-65,-34,69,-27,-80,10,113,96,-67, 
  /* [81][0][][] */ -42,40,-124,23,64,-127,-18,50,-8,-42,59,-7,30,-1,5,0, 
  /* [82][0][][] */ 127,-15,-11,13,12,-124,-17,13,-21,-15,-99,-8,117,0,-12,28, 
  /* [83][0][][] */ -32,72,-123,-79,-29,-23,39,-119,71,44,-49,-127,20,49,45,108, 
  /* [84][0][][] */ -47,45,86,-29,-5,-20,69,-127,-41,63,-6,-57,26,69,83,-13, 
  /* [85][0][][] */ -86,127,30,-114,-76,-25,-29,1,-51,0,-64,27,2,-5,-86,-32, 
  /* [86][0][][] */ -8,8,-31,4,-27,-29,127,22,0,-23,1,11,6,26,81,-20, 
  /* [87][0][][] */ -23,-49,-1,-115,15,-35,44,-18,-4,19,-10,-127,-17,-3,6,-40, 
  /* [88][0][][] */ 88,-40,35,-10,48,-127,-10,28,-29,29,-111,-50,35,28,66,-2, 
  /* [89][0][][] */ 19,-16,-35,-55,21,-7,-28,-7,-55,15,38,-65,127,-8,35,-49, 
  /* [90][0][][] */ 3,-61,35,-65,79,-10,-75,81,58,-89,-44,-33,-7,111,12,-127, 
  /* [91][0][][] */ -52,-4,-19,-38,25,-10,-38,-106,2,71,-5,-127,-39,-15,9,5, 
  /* [92][0][][] */ -20,17,36,13,1,-127,9,-2,0,-22,0,-16,6,-27,15,7, 
  /* [93][0][][] */ 36,-18,127,-12,-57,58,32,-29,-19,26,-67,-16,-26,4,37,3, 
  /* [94][0][][] */ 32,-4,-19,-21,28,-11,-14,-2,-25,-20,12,-57,127,-13,25,-26, 
  /* [95][0][][] */ 127,100,4,41,-95,-9,-66,1,-22,-14,97,-41,-50,35,88,-81, 
};
const TfArray<4, int> tensor_dimension7 = { 4, { 96,1,1,16 } };
const TfArray<96, float> quant7_scale = { 96, { 0.00067332130856812, 0.0012564285425469279, 0.00075227842899039388, 0.000881451356690377, 0.00092164543457329273, 0.0010637742234393954, 0.00046006488264538348, 0.00095613719895482063, 0.00059939781203866005, 0.0010679187253117561, 0.0004512147861532867, 0.00078668619971722364, 0.00076020410051569343, 0.0031681831460446119, 0.00059921341016888618, 0.00062291417270898819, 0.00035065924748778343, 0.00072977540548890829, 0.0014461539685726166, 0.00080029026139527559, 0.0003382909344509244, 0.00024534057592973113, 0.00034232725738547742, 0.00027722155209630728, 0.00040028072544373572, 0.0010699817212298512, 0.0019316767575219274, 0.00085770920850336552, 0.00066603394225239754, 0.001043185475282371, 0.00048300888738594949, 0.00070141832111403346, 0.00051631138194352388, 0.00087758130393922329, 0.00092704640701413155, 0.00069472909672185779, 0.00048072030767798424, 0.00059510837309062481, 0.00097720196936279535, 0.0010620505781844258, 0.00039352363091893494, 0.00108743691816926, 0.00079905218444764614, 0.00051539362175390124, 0.001274800393730402, 0.00045446190051734447, 0.00059872923884540796, 0.00077085406519472599, 0.00075735017890110612, 0.00073397549567744136, 0.00061434356030076742, 0.00045086702448315918, 0.0013280338607728481, 0.00084810040425509214, 0.00097227864898741245, 0.0010441843187436461, 0.00098018674179911613, 0.00073957006679847836, 0.00086051976541057229, 0.00043695577187463641, 0.0019457631278783083, 0.0012409498449414968, 0.00071090093115344644, 0.0012922163587063551, 0.0016587002901360393, 0.00063086696900427341, 0.0002290092088514939, 0.0005923992139287293, 0.0013035500887781382, 0.0011505876900628209, 0.00071087933611124754, 0.0006748491432517767, 0.0022604493424296379, 0.00098448467906564474, 0.00062085455283522606, 0.00057159760035574436, 0.00068545655813068151, 0.00025378970894962549, 0.00027395234792493284, 0.00063205650076270103, 0.0004693864902947098, 0.0005497918464243412, 0.00039154884871095419, 0.00037866877391934395, 0.00035898713394999504, 0.0008201862801797688, 0.0015273253666236997, 0.0005013011978007853, 0.00030528992647305131, 0.0014120067935436964, 0.00051668350351974368, 0.00056182290427386761, 0.00068465294316411018, 0.0017238280270248652, 0.00096266902983188629, 0.00055831007193773985, } };
const TfLiteAffineQuantization quant7 = { (TfLiteFloatArray*)&quant7_scale, (TfLiteIntArray*)&g0::quant6_zero, 0 };
const MODEL_SECTION(EI_MODEL_SECTION) ALIGN(16) int32_t tensor_data8[16] = { -7925, 16464, -21863, -4977, -14849, 9292, 31437, -56612, -6407, 17767, 24012, 15617, -9849, 14063, -6820, 14204, };
const TfArray<1, int> tensor_dimension8 = { 1, { 16 } };
const TfArray<16, float> quant8_scale = { 16, { 0.00084869010606780648, 0.00040575693128630519, 0.00018485813052393496, 0.00026244475157000124, 0.00039465419831685722, 0.00033884221920743585, 0.0003281370154581964, 0.00024898585979826748, 0.00029664699104614556, 0.00024068285711109638, 0.00070956168929114938, 0.00057403737446293235, 0.00042053681681863964, 0.00021876732353121042, 0.00046505121281370521, 0.00052585272351279855, } };
const TfArray<16, int> quant8_zero = { 16, { 0,0,0,0,0,0,0,0,0,0,0,0,0,0,0,0 } };
const TfLiteAffineQuantization quant8 = { (TfLiteFloatArray*)&quant8_scale, (TfLiteIntArray*)&quant8_zero, 0 };
const MODEL_SECTION(EI_MODEL_SECTION) ALIGN(16) int8_t tensor_data9[16*1*1*96] = { 
  /* [0][0][][] */ -16,-10,5,-27,13,-10,-42,-2,19,0,-15,1,-9,-12,-22,9,-7,3,-6,1,5,-29,1,8,0,16,1,127,28,-39,43,-13,2,4,9,5,-6,17,-34,-7,-8,11,1,35,4,12,9,9,25,4,-11,5,14,-15,-14,75,1,11,-24,-31,-9,23,-2,-27,-41,-69,-17,39,3,6,15,-17,-7,-34,-7,-27,-29,14,6,2,-7,-29,21,17,-5,-13,-9,-88,-1,-19,9,-4,47,-34,-30,-15, 
  /* [1][0][][] */ 36,-72,-86,-53,127,-14,74,35,-13,-99,-68,-25,0,3,-58,39,-77,13,45,49,18,37,-22,-50,16,-15,-15,-64,27,-30,-58,41,-25,32,12,9,16,-2,9,14,-34,42,-51,-19,-39,98,5,16,22,-85,11,-41,-27,51,57,23,-55,-16,-44,-29,25,-18,1,-50,-92,102,-29,-14,2,-26,-23,12,48,-118,-41,2,29,-55,55,3,9,-38,21,-3,-62,31,-11,22,28,-48,9,12,24,8,44,99, 
  /* [2][0][][] */ 1,66,-85,-14,91,82,27,72,-2,-96,-3,-19,-4,-4,29,22,17,-20,-42,69,34,-9,77,17,61,24,-3,-40,33,-16,53,-65,37,33,-27,37,-127,-83,30,36,-1,-55,15,-14,15,-34,9,67,-36,22,-17,-17,99,-10,0,64,41,8,36,-2,20,21,41,-30,25,-6,-28,5,-47,10,-21,-43,-48,-86,13,65,79,57,32,7,37,-47,2,-1,-43,36,15,35,-30,33,-1,-34,0,-36,-64,-6, 
  /* [3][0][][] */ 58,17,89,-21,48,-25,23,-13,-28,-49,20,-27,10,29,31,91,27,3,30,1,127,-13,47,12,56,-27,-7,11,37,33,-13,77,-99,15,21,-13,-29,-36,-14,40,-70,-37,69,15,28,33,-41,-95,-49,-32,-43,49,6,-123,9,19,-94,65,45,33,21,89,-20,-42,40,72,0,-54,32,-10,10,-54,52,-22,55,-8,19,2,39,49,-33,-65,29,0,-23,21,27,46,21,23,19,25,25,92,31,-28, 
  /* [4][0][][] */ 29,-1,16,-17,127,42,-3,-16,-39,-45,-31,-29,-49,23,-6,60,26,-71,-44,90,-24,6,26,-18,11,-6,17,-35,16,-9,59,-36,83,16,-19,16,34,11,9,17,-27,-12,-31,-22,-7,-53,-19,12,43,10,-27,13,-4,-31,13,-28,36,-8,-26,34,4,58,59,24,40,47,-24,1,-43,-6,44,57,14,-70,-31,-25,27,40,82,-40,-3,-32,1,-7,-69,9,46,54,-47,38,8,-34,9,11,26,-21, 
  /* [5][0][][] */ 11,-4,-7,4,22,-10,35,-22,-29,-36,-24,10,8,21,-3,14,-3,4,12,-7,40,6,-37,62,2,-11,11,-107,-4,21,8,22,-17,1,3,-68,21,12,-12,1,-13,-15,19,-16,3,-7,8,-30,-11,-19,18,-23,-8,-33,-1,-44,3,11,-28,16,67,13,5,31,0,64,7,73,2,96,14,24,13,14,-13,67,-23,-7,14,9,-10,-15,-2,26,-11,15,-3,127,2,38,-4,-22,1,14,-70,18, 
  /* [6][0][][] */ 19,-79,20,-26,-40,5,34,25,13,-10,-21,-71,-33,-5,-23,33,10,-5,-5,-11,-42,33,8,11,-32,5,-20,-7,-29,21,48,-4,56,14,69,3,1,-5,24,-104,-24,97,-4,-28,10,-17,-25,25,-9,43,-39,71,-29,-59,-20,-8,2,-59,-13,4,-23,60,32,-81,38,-36,13,-16,-12,-1,127,-1,-46,4,-39,20,-95,-12,13,-4,28,37,24,-12,-21,-8,33,14,19,-1,50,-40,-10,-2,-26,-7, 
  /* [7][0][][] */ 15,123,48,6,127,47,45,-28,-33,-25,39,-5,-18,35,15,28,14,-34,9,27,43,-31,41,7,1,16,15,9,29,-10,9,28,40,1,-40,4,21,0,-11,91,-43,28,23,22,-7,-27,30,-25,-20,-30,42,11,22,-43,-26,45,51,-2,-14,-5,-8,-42,-5,-1,-50,74,-33,-81,-6,-29,-5,66,-14,-23,25,14,57,62,35,-18,-34,-30,-7,0,-13,59,-6,6,-28,37,-33,-34,-51,-12,18,-1, 
  /* [8][0][][] */ 2,8,45,20,-127,-26,47,-12,31,90,64,3,-21,18,19,12,-41,12,7,1,-41,1,-119,71,24,-34,61,-10,11,11,6,46,82,-24,5,-4,-19,-7,5,42,10,-37,49,10,-48,-1,47,4,-112,12,24,19,-61,-37,-27,45,20,-50,-79,-16,12,-28,-20,-15,2,76,-6,-50,26,-14,-44,-30,34,45,61,-15,-15,-41,-12,30,-83,12,-24,-2,20,20,70,37,27,-28,41,51,0,0,46,10, 
  /* [9][0][][] */ 6,-107,-21,11,101,84,-27,-33,19,-27,96,91,-10,16,80,-108,23,-33,2,8,-41,-54,39,-19,-23,1,-7,18,-20,15,-1,-7,8,18,-110,22,-10,5,-24,58,23,-71,-14,57,9,-20,-63,-40,33,30,-1,-77,56,19,-12,-54,-10,76,-22,-4,29,-60,-31,127,-87,-5,5,-29,5,37,-51,-68,51,5,3,26,70,-54,15,22,-13,-16,9,38,4,-61,33,0,11,-26,-62,22,-60,-16,-17,-37, 
  /* [10][0][][] */ -51,-17,-35,-40,-30,-9,64,-21,38,17,31,35,22,-15,-3,-1,-2,25,-30,-18,-2,31,13,23,-12,-7,13,-127,23,-48,58,-39,4,15,-1,-6,-2,35,5,-10,13,-37,22,-50,6,-2,29,18,-3,41,-31,-19,-35,-21,-7,-52,23,17,-3,-38,22,15,2,6,-38,85,-16,-27,10,-32,3,-21,-33,-11,17,60,-10,40,-16,21,-20,-4,4,28,5,-21,-13,119,-6,-5,17,9,24,-42,47,-39, 
  /* [11][0][][] */ -82,20,7,-10,18,-56,-18,3,-51,-4,-5,21,33,17,-25,-13,48,6,-58,-54,23,-11,-2,-4,69,7,58,-4,-23,27,-43,16,-14,14,-13,-15,-14,-4,21,4,-17,-13,1,6,82,10,70,9,46,37,-1,33,13,-67,23,1,-65,-18,-35,-44,-6,-16,2,24,3,-23,32,-5,19,19,-3,34,-23,15,22,6,-13,75,-127,71,-36,-10,-62,-60,121,19,40,-8,13,49,-32,-62,-29,41,-32,3, 
  /* [12][0][][] */ -11,-7,-42,8,60,17,-4,-15,-9,17,25,-10,-3,-11,32,-4,-26,-13,10,-11,-12,-12,-40,50,-14,39,-17,93,-13,30,-28,6,-4,22,8,33,-14,-8,19,14,-2,-10,-8,0,-20,1,22,26,-10,0,-9,-34,-14,14,-8,-15,-14,-6,20,17,-18,-18,2,39,34,-78,9,52,-23,-127,-10,45,1,2,17,77,2,-8,0,0,-9,21,-43,-2,9,-20,-9,-50,-4,3,8,6,-30,38,-5,20, 
  /* [13][0][][] */ -82,58,-5,4,-69,-2,-13,18,-28,-32,37,21,76,7,-15,5,-21,27,-46,-3,5,-18,44,-47,54,45,-3,5,3,-28,-22,-101,-92,-24,10,15,2,29,42,-22,-25,88,-7,20,44,5,-21,13,66,-9,21,79,60,-56,71,-12,-17,58,36,10,4,36,-20,20,1,-30,6,12,7,8,24,-127,4,-31,-83,1,41,33,-38,-54,83,-24,3,-33,31,-37,88,-3,-18,-16,-8,22,47,-42,-7,3, 
  /* [14][0][][] */ -32,10,-10,-45,33,4,-8,28,-82,3,25,16,-25,-58,-72,-24,-72,-9,69,12,23,-6,19,-96,-39,14,-45,-18,13,-18,-5,-37,-63,-22,21,15,-16,0,8,3,7,78,-74,-10,-52,24,8,12,127,-21,20,-4,30,50,-96,18,-24,31,-93,12,11,31,40,31,12,28,-1,7,-46,25,61,35,32,-2,-25,25,50,-63,-28,-98,3,-27,14,42,30,-71,-41,13,-37,21,31,50,13,37,17,-14, 
  /* [15][0][][] */ -40,-83,-10,-30,-2,4,-10,-65,-17,11,-10,-29,33,-16,51,-11,-96,-8,-18,16,-22,2,-72,-37,-15,10,-10,23,-26,-22,68,-94,0,27,26,12,-1,32,-92,-2,30,-62,0,33,-34,-46,49,39,42,18,-17,-127,-5,51,-7,43,34,-7,-16,44,-1,2,48,-2,2,-14,-15,-2,-28,14,2,35,-47,0,-4,-43,-37,-15,11,4,0,35,-7,65,-18,-48,-43,-36,-48,51,35,79,-31,-9,8,-17, 
};
const TfArray<4, int> tensor_dimension9 = { 4, { 16,1,1,96 } };
const TfArray<16, float> quant9_scale = { 16, { 0.036069329828023911, 0.017244668677449226, 0.0078564705327153206, 0.011153901927173138, 0.016772802919149399, 0.014400794170796871, 0.013945822604000568, 0.010581899434328079, 0.012607497163116932, 0.010229021310806274, 0.030156370252370834, 0.024396587163209915, 0.01787281408905983, 0.009297611191868782, 0.019764676690101624, 0.022348739206790924, } };
const TfLiteAffineQuantization quant9 = { (TfLiteFloatArray*)&quant9_scale, (TfLiteIntArray*)&g0::quant8_zero, 0 };
const MODEL_SECTION(EI_MODEL_SECTION) ALIGN(16) int32_t tensor_data10[96] = { 16325, 62603, -1132, -792, 16045, -4704, -153, -403, 5824, 18909, -5708, -284, 629, 5048, 4843, -9075, -4238, -266, -123, 12200, -10805, 16031, -1274, 9977, 26812, 28, -5447, 17965, 14847, -19890, 1990, 21903, 23923, -10326, 1452, -554, -36, 214, 4042, -8670, -5627, -643, -8547, -143, 30241, -2116, 13171, -930, -14919, 2716, 44, 532, -2735, 16955, -4320, 15280, 21121, -26, 37196, 132, -9890, -570, 1647, 278, -1084, 13310, -2001, -8511, -3074, 4668, -226, -3344, 1556, 454, -3042, -6317, 515, -2505, 37829, -6877, -5501, -12039, -457, -100, 61325, -12765, -10667, -27801, -7446, 9160, -2257, 31297, -88, -2555, -3468, 864, };
const TfArray<96, float> quant10_scale = { 96, { 0.000139670490170829, 9.1684727522078902e-05, 0.00011170997458975762, 0.00020378493354655802, 0.00020145154849160463, 0.0001809694804251194, 5.8646721299737692e-05, 7.9486839240416884e-05, 0.00023007318668533117, 0.00012721582606900483, 0.00023269921075552702, 0.00010979459329973906, 0.0002349401474930346, 0.00019770253857132047, 0.00038935025804676116, 0.00015354565402958542, 0.00020922346448060125, 0.00015156868903432041, 0.00016883661737665534, 8.7524691480211914e-05, 7.7592871093656868e-05, 4.6149823901942e-05, 0.00013999058865010738, 7.6465265010483563e-05, 8.1552796473260969e-05, 9.8702512332238257e-05, 0.00018663010268937796, 0.00016848859377205372, 7.4477138696238399e-05, 0.00044624149450100958, 0.00037662478280253708, 0.00023546081501990557, 0.00012543796037789434, 0.00015595920558553189, 0.00022046323283575475, 0.00045310964924283326, 0.00039580868906341493, 0.00022364557662513107, 0.000230514066061005, 8.895701466826722e-05, 0.00022987603733781725, 0.00018424614972900599, 0.00035261493758298457, 9.5908377261366695e-05, 0.00036872655618935823, 8.8526932813692838e-05, 0.00012088203220628202, 0.00028879297315143049, 0.00067342724651098251, 9.9731150839943439e-05, 0.00039719935739412904, 0.00014545225712936372, 0.00019650306785479188, 0.00016593892360106111, 0.00019776825502049178, 0.00011891769099747762, 0.00013100125943310559, 0.00039874957292340696, 4.4855576561531052e-05, 0.00016504524683114141, 0.00027506097103469074, 0.00035130337346345186, 0.00011374071618774906, 0.00015764236741233617, 0.00012588221579790115, 0.00013737945118919015, 0.00021715150796808302, 0.00026066420832648873, 0.00018646242097020149, 0.00010574472253210843, 0.00021181929332669824, 9.7778553026728332e-05, 0.00027304334798827767, 0.0001340740273008123, 0.0002569232601672411, 0.00029292254475876689, 0.0001138884254032746, 9.2728536401409656e-05, 6.810239574406296e-05, 0.00017711172404233366, 0.00024976854911074042, 0.00022927350073587149, 0.0001615292567294091, 0.00029103027191013098, 5.8093639381695539e-05, 0.00012098796287318692, 7.1968810516409576e-05, 0.00047540184459649026, 0.00023103404964786023, 0.00012613555009011179, 0.0003710143209900707, 3.8161466363817453e-05, 0.00014593070955015719, 0.00010397497680969536, 0.00030402990523725748, 0.00026180365239270031, } };
const TfLiteAffineQuantization quant10 = { (TfLiteFloatArray*)&quant10_scale, (TfLiteIntArray*)&g0::quant6_zero, 0 };
const MODEL_SECTION(EI_MODEL_SECTION) ALIGN(16) int8_t tensor_data11[1*3*3*96] = { 
  /* [0][0][][] */ -46,-72,-11,127,22,72,76,-58,-15,-18,-15,-5,-30,1,37,1,-9,-44,26,22,20,-127,127,6,-83,9,49,-28,-126,-127,38,24,12,27,62,-17,-31,-11,29,-7,-12,27,-108,71,25,-66,37,45,-18,51,-24,19,4,-6,16,47,-91,-50,-61,-20,-10,1,11,38,67,-25,74,14,-8,16,19,127,23,22,25,0,-11,17,127,-6,-15,17,-27,21,124,21,-76,-16,-2,-31,-15,-39,2,-24,-16,26, 127,-127,75,106,-43,127,39,-117,69,5,-17,127,127,-96,-13,15,11,127,127,-110,127,-78,81,67,-127,-114,-66,-34,-56,46,-59,-20,-89,54,-127,-83,-44,-15,-53,63,0,127,127,81,-51,-112,-113,-49,-15,-127,42,84,67,-31,45,82,-48,42,-79,-115,-44,-41,-60,68,73,-61,27,31,-82,31,-17,90,116,127,14,20,1,58,-32,52,64,127,127,-23,-9,74,-110,127,-123,-99,5,-127,-89,-127,-38,106, -74,-13,29,-82,15,-25,63,-7,79,-35,-27,18,-19,-4,-8,-12,-8,-17,7,-4,-21,-104,29,-1,-121,97,8,-55,116,50,-14,10,1,15,15,-28,-9,33,18,13,26,12,-116,64,18,-18,37,14,-14,10,-17,5,-11,2,-3,19,-66,6,-32,52,3,41,33,-1,-7,-38,-32,24,9,2,-3,35,9,-26,-5,4,-12,-7,-84,3,-22,-24,-17,3,-110,10,-32,-22,-52,25,-25,-32,29,-26,-14,1, 
  /* [0][1][][] */ -64,-75,73,-35,-48,93,19,127,-52,-21,0,-120,26,-115,78,31,-2,-61,-17,89,53,-72,47,50,-92,-10,127,-23,-24,64,121,-103,-127,91,-85,-55,-37,31,-29,93,-48,-26,-6,47,-48,127,-23,64,16,94,20,-2,14,-54,28,31,127,123,-73,-86,127,-32,-35,127,71,-38,-15,-1,127,38,127,96,-41,102,-5,11,14,13,-31,10,-43,126,-79,111,1,35,-55,30,77,-127,-31,-6,127,-69,-22,0, 67,124,58,-113,127,82,91,37,-127,127,127,-39,-65,-127,-127,127,127,-65,-124,-49,103,93,-124,127,-104,-89,-44,127,-127,109,-127,-127,-88,127,109,127,127,-127,-104,127,-65,-97,109,-127,-127,-36,-127,-127,127,-112,86,42,127,127,127,-127,100,-127,-127,127,20,-80,-127,-101,-127,127,-127,127,-127,-127,-107,-84,-127,-80,127,127,-127,127,-77,127,127,30,-41,-127,59,127,93,46,127,12,127,3,-67,36,127,-127, -53,-14,-50,38,-56,-99,36,-26,18,-34,-28,93,1,91,13,11,-4,64,-7,127,3,-87,-42,7,-68,105,-71,-21,-70,-16,16,-62,-70,38,7,-17,-29,44,-67,43,127,-4,-37,30,-40,-58,16,44,8,117,-11,6,-37,-72,3,18,96,2,1,22,-33,127,91,-53,-43,13,39,-10,-78,120,-18,-87,-1,-55,-15,-22,26,16,77,-34,-70,-43,57,16,-48,-16,72,23,15,63,-43,21,-42,98,-26,-5, 
  /* [0][2][][] */ -66,1,-4,-20,13,-46,66,24,55,-27,-35,-2,18,17,-26,0,-6,67,7,1,-55,-83,1,-8,-27,-52,34,-69,88,39,24,26,16,-8,-10,-45,-7,34,-3,-2,-15,-6,-68,106,3,32,12,36,-16,-31,10,-20,21,-1,9,14,-71,23,-16,14,15,1,-21,-5,-1,-46,-47,16,-34,12,25,29,13,-20,26,4,16,5,-77,-12,-8,-7,17,15,-127,7,12,-44,-58,-50,-26,-47,10,58,-18,-8, 122,33,-127,-35,-71,-26,38,30,-64,-28,-19,-107,-77,109,-13,36,2,-51,-10,-124,90,-52,-40,1,-102,127,-51,20,-35,-21,-10,-5,-61,15,28,6,-23,-29,127,53,11,-15,68,-33,-39,77,-67,-43,-33,-6,-127,-127,-51,-26,2,39,-66,-8,10,39,-7,-18,8,-47,-54,33,64,-21,114,106,-24,-72,11,-58,5,3,98,4,51,22,11,-97,-50,3,2,8,127,40,-61,38,-18,-109,42,81,-10,26, -53,12,-18,25,16,-69,-127,2,-11,-7,-15,5,15,-27,19,-2,-8,-15,5,17,-50,-72,13,1,17,-94,20,3,-48,-39,-7,16,42,-21,-5,-24,-36,2,42,-40,23,-2,-47,-33,3,66,23,16,-9,-5,9,-9,16,5,-4,-6,-61,-13,2,-38,-10,9,83,-10,34,-1,-2,29,1,4,-4,20,-18,16,1,15,35,0,75,-10,3,-8,-8,-17,73,0,41,-38,59,39,-16,-52,-7,3,-14,-15, 
};
const TfArray<4, int> tensor_dimension11 = { 4, { 1,3,3,96 } };
const TfArray<96, float> quant11_scale = { 96, { 0.00593599583953619, 0.0038966007996350527, 0.0047476738691329956, 0.0086608594283461571, 0.0085616903379559517, 0.0076912026852369308, 0.0024924855679273605, 0.003378190565854311, 0.0097781103104352951, 0.0054066726006567478, 0.0098897162824869156, 0.0046662702225148678, 0.0099849561229348183, 0.0084023578092455864, 0.016547385603189468, 0.0065256902016699314, 0.0088919969275593758, 0.0064416690729558468, 0.0071755559183657169, 0.0037197992205619812, 0.0032976968213915825, 0.0019613674376159906, 0.0059495996683835983, 0.0032497737556695938, 0.0034659937955439091, 0.004194856621325016, 0.0079317791387438774, 0.0071607651188969612, 0.0031652783509343863, 0.018965262919664383, 0.016006553545594215, 0.010007084347307682, 0.0053311130031943321, 0.0066282660700380802, 0.0093696871772408485, 0.019257159903645515, 0.016821868717670441, 0.0095049366354942322, 0.0097968475893139839, 0.0037806730251759291, 0.0097697312012314796, 0.0078304614871740341, 0.014986134134232998, 0.0040761060081422329, 0.015670878812670708, 0.0037623944226652384, 0.0051374863833189011, 0.012273700907826424, 0.028620656579732895, 0.0042385738343000412, 0.016880972310900688, 0.006181720644235611, 0.0083513800054788589, 0.0070524043403565884, 0.0084051508456468582, 0.005054001696407795, 0.0055675534531474113, 0.016946855932474136, 0.0019063618965446949, 0.0070144226774573326, 0.011690091341733932, 0.014930392615497112, 0.0048339804634451866, 0.0066998004913330078, 0.005349994171410799, 0.0058386265300214291, 0.0092289391905069351, 0.011078229174017906, 0.0079246526584029198, 0.004494150634855032, 0.0090023195371031761, 0.004155588336288929, 0.011604341678321362, 0.0056981458328664303, 0.010919238440692425, 0.012449207715690136, 0.0048402580432593822, 0.0039409627206623554, 0.0028943517245352268, 0.0075272480025887489, 0.010615162551403046, 0.0097441235557198524, 0.006864993367344141, 0.01236878614872694, 0.0024689796846359968, 0.0051419883966445923, 0.0030586742796003819, 0.020204577594995499, 0.0098189469426870346, 0.0053607607260346413, 0.015768108889460564, 0.0016218622913584113, 0.0062020551413297653, 0.0044189365580677986, 0.012921270914375782, 0.011126655153930187, } };
const TfLiteAffineQuantization quant11 = { (TfLiteFloatArray*)&quant11_scale, (TfLiteIntArray*)&g0::quant6_zero, 3 };
const MODEL_SECTION(EI_MODEL_SECTION) ALIGN(16) int32_t tensor_data12[96] = { 1512, 6691, 8479, 22842, 9749, -3069, -1276, 3578, 18325, -3163, 8738, 2991, 5484, 8236, 22758, 1004, 1518, 7188, 9994, 5530, -241, 340, 8414, -848, 3328, 62, 12281, 5098, 6111, 33374, 29903, 13201, 6184, -431, 7398, 1950, 1232, 2521, 13584, -1061, 8508, 6802, 38870, -2989, 19504, 6295, 5218, 10605, 41328, 7743, -344, 6267, -3182, -205, -1978, 4154, -434, 11839, 5004, 6876, 3768, 11233, 4850, 4223, 8127, 7782, 3119, -4539, 5566, -2523, 3816, 7040, 13864, 3891, -5093, -3415, 5147, 186, 2221, -1036, 11523, 7533, 4019, 12295, 2420, 199, 8627, 38643, 6216, 9552, 5941, -154, 5104, 7277, 3330, 8859, };
const TfArray<96, float> quant12_scale = { 96, { 0.00026960863033309579, 0.00022359425202012062, 0.00022422707115765661, 0.00010197326628258452, 0.0003049225197173655, 0.00032601039856672287, 0.00063096248777583241, 0.00045462074922397733, 0.00012718499056063592, 0.00043629269930534065, 0.00030500389402732253, 0.00029355866718105972, 0.00023142869758885354, 0.00028187260613776743, 0.00010544428369030356, 0.0005666571669280529, 0.0003054634144064039, 0.00017493189079686999, 0.00022163761605042964, 0.00021585675131063908, 0.00038765586214140058, 0.00064413674408569932, 0.00023645510373171419, 0.00074346840847283602, 0.00078236323315650225, 0.00031354668317362666, 0.00018232203728985041, 0.00027403829153627157, 0.0002685182262212038, 0.00010522703087190166, 9.4512659416068345e-05, 0.00018804469436872751, 0.00027118957950733602, 0.00047661020653322339, 0.00026830911519937217, 0.00029224102036096156, 0.00042898082756437361, 0.00059075007447972894, 0.00020113973005209118, 0.00052292016334831715, 0.00022108892153482884, 0.00023110443726181984, 6.9317829911597073e-05, 0.00035680949804373085, 0.00016690303164068609, 0.00024333078181371093, 0.00033217185409739614, 0.00025104786618612707, 0.00010015033331001177, 0.0002725008234847337, 0.0003248323337174952, 0.00027712681912817061, 0.00033752273884601891, 0.00025276851374655962, 0.00053326552733778954, 0.00026989693287760019, 0.00022375007392838597, 0.00015868725313339382, 0.00040767184691503644, 0.0002156906557502225, 0.00042431949987076223, 0.00012353002966847271, 0.0003013241512235254, 0.00023523032723460346, 0.00030356724164448678, 0.00024996569845825434, 0.00041063380194827914, 0.00028982359799556434, 0.00030283842352218926, 0.00028768146876245737, 0.00029304917552508414, 0.00022664655989501625, 0.00014922693662811071, 0.00026393274310976267, 0.00030081829754635692, 0.00039515621028840542, 0.00032495433697476983, 0.00048379893996752799, 0.00033671947312541306, 0.00042093824595212936, 0.00017621388542465866, 0.00022066490782890469, 0.00021514577383641154, 0.00015863723820075393, 0.00048028957098722458, 0.00033207732485607266, 0.00027216743910685182, 9.9100027000531554e-05, 0.00023202547163236886, 0.00023708262597210705, 0.00021020649001002312, 0.00040936979348771274, 0.00028493383433669806, 0.00021830233163200319, 0.00033516137045808136, 0.00019412323308642954, } };
const TfLiteAffineQuantization quant12 = { (TfLiteFloatArray*)&quant12_scale, (TfLiteIntArray*)&g0::quant6_zero, 0 };
const MODEL_SECTION(EI_MODEL_SECTION) ALIGN(16) int8_t tensor_data13[96*1*1*16] = { 
  /* [0][0][][] */ -5,64,-20,87,17,41,12,-14,26,41,-62,105,-6,-127,37,-126, 
  /* [1][0][][] */ 22,56,-14,-12,24,-21,127,-106,-4,94,-9,-21,0,-48,28,5, 
  /* [2][0][][] */ -127,31,-24,-16,-3,4,51,85,-30,46,94,-18,-73,3,41,-39, 
  /* [3][0][][] */ -52,54,37,51,-57,40,66,127,1,67,-122,-5,50,-75,-94,-42, 
  /* [4][0][][] */ 8,-2,33,72,-23,73,4,45,14,-12,2,0,18,3,-127,-27, 
  /* [5][0][][] */ -14,-37,69,-15,16,-18,-16,32,-62,114,-36,-127,-22,34,-55,-39, 
  /* [6][0][][] */ 22,-2,29,-18,32,49,-62,-62,-3,-10,49,-19,127,-16,-7,-22, 
  /* [7][0][][] */ 14,12,127,-7,-21,-30,7,-2,-67,30,-74,-46,6,1,39,-18, 
  /* [8][0][][] */ 31,38,90,57,-76,100,35,41,25,7,12,-96,-42,-3,-127,-70, 
  /* [9][0][][] */ 29,-127,61,37,5,-35,2,15,103,7,78,-1,-15,-7,-101,-26, 
  /* [10][0][][] */ -55,-110,0,-15,-101,16,-24,44,104,127,61,-33,-33,67,96,-1, 
  /* [11][0][][] */ 51,-26,5,-95,12,-38,-107,-127,-47,41,-7,-26,37,-10,42,-60, 
  /* [12][0][][] */ -10,15,1,-35,-41,-30,-97,-14,-53,-67,-15,5,25,127,95,36, 
  /* [13][0][][] */ -38,-127,-81,45,2,-74,-13,-29,60,28,-6,-14,25,8,126,16, 
  /* [14][0][][] */ 11,-74,45,21,7,24,18,124,8,62,3,-53,22,28,-71,127, 
  /* [15][0][][] */ 25,-33,2,54,10,-5,91,0,7,-127,10,-40,7,-16,-8,-29, 
  /* [16][0][][] */ 24,-70,-31,27,4,17,26,-57,127,52,78,14,3,109,68,106, 
  /* [17][0][][] */ -63,-49,37,127,100,60,22,-11,116,-36,1,-35,13,59,-95,20, 
  /* [18][0][][] */ -6,12,-6,12,-92,-9,-1,26,-68,-22,-24,-40,11,-127,58,3, 
  /* [19][0][][] */ 38,-69,49,-69,96,30,-108,95,101,-87,90,46,-10,57,51,127, 
  /* [20][0][][] */ 39,-10,68,-77,-17,16,-27,56,-17,-44,85,-6,7,24,-40,127, 
  /* [21][0][][] */ -70,-18,-1,-44,18,15,-74,-59,-33,73,-6,14,-127,-29,28,-5, 
  /* [22][0][][] */ 31,-31,19,-38,20,-81,3,-16,-127,20,-18,-47,-12,-7,82,-15, 
  /* [23][0][][] */ 11,12,22,-8,3,14,-6,8,-3,-10,46,-9,127,-1,6,-34, 
  /* [24][0][][] */ -2,-7,0,-57,-17,-21,35,0,-47,1,-21,-127,0,-100,29,6, 
  /* [25][0][][] */ -119,1,-43,14,69,-35,-74,-127,-20,65,-40,-43,-102,-76,23,-45, 
  /* [26][0][][] */ 51,-11,54,-113,125,-41,14,13,127,-59,34,-39,-7,118,0,94, 
  /* [27][0][][] */ 104,-30,20,-35,-32,-64,-3,-17,-33,17,-127,11,22,-19,-1,40, 
  /* [28][0][][] */ -115,-11,-127,-95,43,-25,80,-66,-12,59,-66,25,58,-22,-37,41, 
  /* [29][0][][] */ -65,-24,-8,127,-19,22,17,-49,-12,0,-84,54,31,-78,32,-31, 
  /* [30][0][][] */ 43,-11,127,-10,41,52,-28,61,-28,-63,60,-25,-20,21,-58,57, 
  /* [31][0][][] */ 15,-106,3,-52,8,-74,13,-42,-9,45,116,20,-30,98,72,127, 
  /* [32][0][][] */ -9,71,-39,31,-127,19,-64,-39,-60,-26,3,43,14,40,34,59, 
  /* [33][0][][] */ 34,-16,25,127,27,-5,25,-50,-108,47,67,-23,6,3,-2,109, 
  /* [34][0][][] */ 50,-12,2,-18,73,-60,-127,-16,-59,81,-53,6,-22,-1,-6,23, 
  /* [35][0][][] */ 64,4,-9,-12,11,-127,-21,-11,-38,-9,-71,-6,72,11,-3,24, 
  /* [36][0][][] */ 19,2,-127,8,45,17,-33,19,-37,-25,5,-9,-1,10,-13,9, 
  /* [37][0][][] */ -5,0,127,0,-70,39,14,-75,-26,34,-62,25,10,-13,8,-10, 
  /* [38][0][][] */ -123,35,-11,17,26,65,19,-24,3,-23,127,-34,-17,-1,-21,-13, 
  /* [39][0][][] */ -22,-10,21,39,36,-9,-127,43,16,33,0,-34,-6,-16,1,-8, 
  /* [40][0][][] */ 16,97,-22,127,9,60,62,43,-59,-48,-29,75,17,43,-53,-20, 
  /* [41][0][][] */ 9,10,-47,-22,-44,-2,127,91,-46,91,-31,2,2,66,37,-10, 
  /* [42][0][][] */ 40,-46,-34,-36,29,40,-68,73,114,-120,127,74,-17,67,-70,45, 
  /* [43][0][][] */ -75,-10,27,-49,36,21,-78,-85,-36,37,-9,-17,-127,-23,29,3, 
  /* [44][0][][] */ 9,9,-13,5,-1,-15,-5,-36,127,5,19,47,18,76,-1,33, 
  /* [45][0][][] */ -64,-76,6,-108,30,-5,-2,61,7,-60,-22,-17,36,120,-41,127, 
  /* [46][0][][] */ -49,25,-21,95,-88,-18,-2,-75,-127,39,-54,-10,-9,38,7,-43, 
  /* [47][0][][] */ -40,-8,-97,127,-1,73,-9,-14,20,46,62,68,-38,-12,32,-16, 
  /* [48][0][][] */ -7,-5,19,-127,34,-44,-14,-1,-57,15,33,-20,-12,47,91,39, 
  /* [49][0][][] */ -30,18,52,103,-14,53,-40,-33,9,-34,-87,-26,-43,-55,-92,-127, 
  /* [50][0][][] */ -4,77,32,-112,55,20,-20,62,127,-16,-46,1,3,-43,10,-32, 
  /* [51][0][][] */ 7,-33,24,-3,41,-7,-52,-127,18,-77,-11,5,-21,-8,-4,-7, 
  /* [52][0][][] */ 15,24,-3,37,33,-8,-58,103,-75,127,-40,-32,71,104,13,-41, 
  /* [53][0][][] */ -2,103,4,-97,-31,-13,23,-22,-56,-69,-45,49,21,-127,-101,-7, 
  /* [54][0][][] */ -1,15,21,29,52,-25,4,-39,-5,26,-17,-16,-4,127,-50,-16, 
  /* [55][0][][] */ -121,127,80,-18,47,4,-11,-12,-51,33,105,-12,-11,-32,117,-16, 
  /* [56][0][][] */ 67,2,9,-127,90,-14,-15,25,47,-64,62,120,-4,3,83,66, 
  /* [57][0][][] */ -13,-5,10,62,-20,7,38,127,-11,-8,-2,-27,12,45,-1,26, 
  /* [58][0][][] */ 25,121,-9,-127,4,27,-7,16,101,-13,4,73,10,-87,39,71, 
  /* [59][0][][] */ 23,54,53,-105,-49,3,19,0,16,21,34,-64,-20,-127,-61,14, 
  /* [60][0][][] */ 76,-15,122,-75,-60,127,53,-58,-20,25,-39,-27,50,21,55,23, 
  /* [61][0][][] */ -38,24,-36,-35,-44,20,112,127,-5,80,-10,19,1,87,28,-36, 
  /* [62][0][][] */ -27,-4,6,11,-88,51,-73,17,-17,-16,-11,-52,3,-127,107,-1, 
  /* [63][0][][] */ 23,-37,3,-103,47,-14,-118,-127,-68,97,-26,6,60,0,30,-34, 
  /* [64][0][][] */ -27,-6,28,41,76,-8,-26,-127,22,-114,-3,-46,-4,-26,-6,10, 
  /* [65][0][][] */ -127,14,26,-69,10,93,51,-61,-82,40,40,-18,0,22,-23,-26, 
  /* [66][0][][] */ 68,3,76,8,-58,5,-23,47,-54,-13,57,-88,-8,45,-127,-6, 
  /* [67][0][][] */ 43,-41,-39,81,65,-51,-85,-108,57,-127,-78,-30,-105,28,-92,20, 
  /* [68][0][][] */ 28,-34,-92,56,-62,-94,3,-70,-53,-16,41,-71,-41,40,127,-14, 
  /* [69][0][][] */ -14,25,-58,42,-23,-127,18,71,13,6,40,-25,126,22,-23,11, 
  /* [70][0][][] */ 3,16,-34,-29,-40,16,127,96,-14,61,-13,17,6,50,18,-10, 
  /* [71][0][][] */ 7,-4,-22,-43,26,3,16,57,-28,-36,-7,3,8,-127,79,4, 
  /* [72][0][][] */ 27,29,-16,35,39,-52,-44,-127,17,65,-51,34,58,57,37,53, 
  /* [73][0][][] */ -37,-127,-25,-80,-86,-29,43,-31,-18,2,-43,-37,16,-52,60,6, 
  /* [74][0][][] */ -28,22,73,111,0,8,-127,105,32,-31,-37,-48,-6,-2,-22,-6, 
  /* [75][0][][] */ -52,29,-48,-5,-46,78,101,111,-4,35,-1,-45,-127,86,15,37, 
  /* [76][0][][] */ 24,-11,-54,-35,35,-88,-127,-116,-40,-16,21,-16,56,-21,86,-31, 
  /* [77][0][][] */ -30,9,-38,-28,-51,-7,-14,-48,127,4,-67,9,-4,44,32,-81, 
  /* [78][0][][] */ -99,-127,-7,90,63,54,-19,40,7,-71,-104,80,63,-21,108,72, 
  /* [79][0][][] */ 45,0,30,-68,127,-1,63,20,94,16,5,41,11,-13,2,-31, 
  /* [80][0][][] */ -6,-35,66,-115,-31,-57,0,13,-105,-53,-16,-66,8,127,-47,13, 
  /* [81][0][][] */ 11,-7,34,48,11,46,-25,-17,3,-9,5,-31,4,20,-127,3, 
  /* [82][0][][] */ -84,-30,33,-127,-16,-42,-2,-35,-32,-45,-67,-112,-11,-115,-94,32, 
  /* [83][0][][] */ -9,6,-16,-53,-48,21,-7,30,-78,8,12,-74,7,-127,9,36, 
  /* [84][0][][] */ 127,36,16,56,-52,-7,-57,17,-1,-16,101,4,-67,25,84,-70, 
  /* [85][0][][] */ -8,-9,25,-42,37,-2,-44,126,-79,-127,-81,-23,-16,95,80,-117, 
  /* [86][0][][] */ 24,5,14,8,-68,76,-41,43,-94,-41,29,-24,-10,-127,-12,25, 
  /* [87][0][][] */ 127,-47,25,-15,-44,-30,-5,-17,12,5,-109,13,32,2,4,47, 
  /* [88][0][][] */ 38,92,-25,-10,-26,-16,-17,-18,91,-8,20,28,-8,-51,127,-100, 
  /* [89][0][][] */ 57,76,-99,-23,-48,-29,24,-82,50,50,18,-40,-37,-8,-17,-127, 
  /* [90][0][][] */ 1,-40,-12,-97,-68,-1,127,-71,90,-93,11,-105,63,-32,-55,-1, 
  /* [91][0][][] */ 2,12,-13,-104,-52,7,25,-33,-50,21,54,49,11,-12,41,127, 
  /* [92][0][][] */ 10,8,17,21,63,-8,-81,-127,54,-57,0,-27,-43,-9,-5,-27, 
  /* [93][0][][] */ 62,10,49,-124,-45,6,-21,67,47,-62,93,-18,-24,127,-17,13, 
  /* [94][0][][] */ -90,37,-98,5,56,-127,-25,-2,-9,-46,90,-32,10,-7,-22,-4, 
  /* [95][0][][] */ -37,55,27,-127,10,-9,-31,5,28,-34,-51,-78,-1,40,-57,-11, 
};
const TfArray<96, float> quant13_scale = { 96, { 0.00066712335683405399, 0.00055326474830508232, 0.00055483059259131551, 0.00025232406915165484, 0.00075450458098202944, 0.00080668472219258547, 0.0015612624119967222, 0.001124919974245131, 0.00031470833346247673, 0.001079568755812943, 0.00075470592128112912, 0.00072638568235561252, 0.00057265040231868625, 0.00069746951339766383, 0.00026091281324625015, 0.001402144436724484, 0.00075584294972941279, 0.00043285393621772528, 0.00054842320969328284, 0.00053411896806210279, 0.00095922109903767705, 0.0015938610304147005, 0.00058508780784904957, 0.0018396485829725862, 0.0019358905265107751, 0.00077584432438015938, 0.00045114019303582609, 0.00067808420863002539, 0.00066442525712773204, 0.00026037523639388382, 0.00023386345128528774, 0.00046530042891390622, 0.00067103526089340448, 0.0011793309822678566, 0.00066390784922987223, 0.00072312523843720555, 0.0010614761849865317, 0.00146176025737077, 0.00049770297482609749, 0.0012939209118485451, 0.00054706551600247622, 0.00057184806792065501, 0.00017152100917883217, 0.00088289444101974368, 0.00041298719588667154, 0.0006021010922268033, 0.00082193070556968451, 0.00062119634822010994, 0.00024781338288448751, 0.00067427987232804298, 0.00080376968253403902, 0.00068572646705433726, 0.00083517096936702728, 0.00062545394757762551, 0.0013195197097957134, 0.00066783674992620945, 0.00055365031585097313, 0.00039265796658582985, 0.0010087488917633891, 0.0005337079637683928, 0.0010499421041458845, 0.00030566443456336856, 0.00074560072971507907, 0.00058205722598358989, 0.00075115100480616093, 0.0006185186211951077, 0.0010160780511796474, 0.00071714358637109399, 0.00074934761505573988, 0.00071184308035299182, 0.00072512496262788773, 0.00056081742513924837, 0.00036924920277670026, 0.00065307889599353075, 0.00074434903217479587, 0.00097778008785098791, 0.00080407154746353626, 0.0011971188941970468, 0.00083318335236981511, 0.0010415754513815045, 0.00043602610821835697, 0.00054601632291451097, 0.00053235969971865416, 0.00039253418799489737, 0.001188435242511332, 0.00082169676898047328, 0.00067345495335757732, 0.00024521449813619256, 0.0005741270724684, 0.00058664055541157722, 0.00052013789536431432, 0.0010129503207281232, 0.00070504425093531609, 0.00054017035290598869, 0.0008293279679492116, 0.00048034125939011574, } };
const TfLiteAffineQuantization quant13 = { (TfLiteFloatArray*)&quant13_scale, (TfLiteIntArray*)&g0::quant6_zero, 0 };
const MODEL_SECTION(EI_MODEL_SECTION) ALIGN(16) int32_t tensor_data14[16] = { -3936, -4256, -12258, 31471, 24403, 5409, -5907, -4678, 20611, 3318, 25325, 24531, -12438, 12431, 34710, -31521, };
const TfArray<16, float> quant14_scale = { 16, { 0.00045313435839489102, 0.00028511261916719377, 0.00024324403784703463, 0.0002167988131986931, 0.0003568593820091337, 0.0003371229104232043, 0.00027862083516083658, 0.00039626326179131866, 0.00023866495757829398, 0.00025181824457831681, 0.00037439540028572083, 0.00074014411075040698, 0.00043998874025419354, 0.00047613264177925885, 0.00047401268966495991, 0.00026179908309131861, } };
const TfLiteAffineQuantization quant14 = { (TfLiteFloatArray*)&quant14_scale, (TfLiteIntArray*)&g0::quant8_zero, 0 };
const MODEL_SECTION(EI_MODEL_SECTION) ALIGN(16) int8_t tensor_data15[16*1*1*96] = { 
  /* [0][0][][] */ -5,13,-6,15,52,70,-31,-36,41,8,17,7,-14,18,30,73,4,-2,-5,-1,104,-52,11,-10,-30,-33,-50,-91,-12,-1,40,54,125,1,1,-7,13,-25,-21,13,-27,9,15,-37,-1,-35,-15,31,-10,16,3,-2,-32,-9,0,-9,45,20,-21,-21,-56,31,-5,-11,18,14,51,-5,17,8,4,-22,-63,-9,-3,7,-10,-86,10,-26,37,-26,-64,-49,29,-13,10,27,-11,11,18,-28,27,22,-17,127, 
  /* [1][0][][] */ 71,-103,36,92,-10,-66,-27,-38,-19,-86,1,16,7,-72,-29,-53,-85,0,21,17,-31,-119,-35,33,127,-66,-65,24,-37,106,-14,62,14,16,-54,19,-15,-17,45,-21,-11,-91,80,-29,-51,8,63,-11,43,12,4,-69,75,-71,45,-33,28,30,-20,-107,44,-69,24,-53,11,-76,27,38,39,49,-46,6,-98,40,-30,72,40,97,26,-25,44,11,-75,44,-90,77,-10,75,-55,0,16,0,4,-51,38,-8, 
  /* [2][0][][] */ 33,18,8,-31,11,-2,-4,37,73,-19,13,66,-2,7,52,9,-9,-20,20,-3,-20,-60,1,-55,2,-10,-21,27,-10,18,126,-60,23,-70,-18,65,19,127,-49,-21,-1,-13,-8,34,-46,-48,-67,19,33,33,-32,-42,31,-2,3,-29,-26,6,2,32,5,10,78,101,6,-85,15,-73,-9,-20,-13,11,-18,16,-26,10,14,65,1,14,14,96,29,-17,-11,1,20,11,24,-4,-7,-56,-48,2,-12,65, 
  /* [3][0][][] */ -15,-16,-30,37,21,-18,-5,-25,-12,9,-2,12,5,-17,35,-13,41,-48,27,-1,-21,-7,-19,-7,-12,7,16,-13,31,-48,69,-25,9,-21,-4,52,-17,-2,-13,0,6,-57,23,-32,-1,8,6,-2,-127,51,-19,12,-123,-54,-21,-31,28,15,-7,48,-12,20,3,15,-22,-95,-32,33,51,19,0,20,-43,16,-3,-46,-43,-58,31,-33,15,-15,16,74,43,54,41,10,36,-12,-3,13,-25,6,-16,-21, 
  /* [4][0][][] */ 0,-34,9,-63,-4,-16,-44,11,-25,-40,-29,-7,4,68,9,8,48,-10,13,0,-5,28,49,3,-6,-4,20,12,6,-9,-1,-7,-34,5,4,21,36,-24,-1,-8,6,6,-92,-34,29,0,-9,-13,4,84,-16,-20,-23,-15,9,-8,5,-34,29,30,8,7,5,-11,40,-108,22,-15,-51,10,-18,1,-14,12,-23,31,-25,63,57,9,10,5,127,-41,34,-21,-14,-2,67,3,-1,12,-29,20,-2,-42, 
  /* [5][0][][] */ -11,1,-2,1,-13,1,-8,118,64,-25,-18,-28,-7,27,29,26,-9,-16,11,-47,-54,-19,-1,-63,20,8,34,73,75,7,79,44,-58,9,5,-6,-60,-51,-36,-22,-36,-10,-6,1,73,6,15,7,13,-2,-19,2,-35,-21,10,-4,-29,-12,-4,29,-59,21,-30,-43,6,10,-27,8,-5,19,1,-8,30,18,14,-5,-6,24,11,127,-1,-46,32,42,6,-4,32,-31,1,-37,23,-125,-42,-13,-7,-118, 
  /* [6][0][][] */ -25,-1,-16,-51,2,-16,-12,18,1,27,-14,-7,43,-65,11,-8,0,-64,22,15,9,-1,-18,24,77,-7,0,4,14,0,12,-5,-21,7,-28,-2,26,2,17,38,-7,-37,-46,-14,-1,-28,25,-127,19,29,19,16,16,2,-12,-49,36,-3,-8,7,25,15,8,8,35,70,21,-26,-30,-8,9,-19,14,3,46,-8,-34,32,4,1,-12,-2,54,-32,-4,49,24,-19,18,7,-38,-11,-20,2,-4,9, 
  /* [7][0][][] */ 19,13,34,-20,-1,-1,-2,-21,-3,-16,-16,-10,-12,-90,22,4,-6,-34,-14,-13,8,-13,-41,-8,-16,-7,0,-19,14,6,10,-2,-10,0,-2,-13,0,-7,-26,22,3,-8,-16,33,-7,17,-19,70,0,28,-17,-29,-28,2,2,-51,44,-1,1,-2,-6,7,-14,-5,-20,39,14,-24,-11,-9,6,35,-10,-5,-13,6,51,11,-7,-20,2,-33,37,-3,-35,127,-3,-2,-36,-25,0,18,-23,-1,-12,6, 
  /* [8][0][][] */ -54,33,-60,-6,45,2,-12,31,12,66,-38,7,23,37,72,-10,6,33,-65,19,14,21,-32,1,-29,-18,29,11,44,-87,6,-1,28,-1,16,-3,-13,25,-47,49,8,13,4,-127,-41,0,39,-24,-43,16,-1,63,-98,65,26,-7,4,-21,-27,-23,3,-42,12,24,-28,35,21,-20,-9,-3,27,79,-20,37,34,30,-10,-81,-2,-27,-16,-10,16,-5,-63,6,16,-34,1,27,-26,-1,30,-16,-20,-17, 
  /* [9][0][][] */ 22,-48,-27,-31,14,26,-18,19,32,-23,-7,17,-36,-19,0,13,-8,4,40,-25,-29,4,-21,-50,39,9,35,-18,-27,-40,-12,-7,-15,6,27,36,0,45,-30,13,17,22,-16,-77,11,-8,33,-127,-37,1,-6,17,-20,1,-5,13,-49,30,-6,9,6,6,6,33,18,101,33,47,16,-6,9,-28,-18,8,-27,6,64,-9,10,16,-5,7,17,-35,9,19,-6,-4,-39,27,-28,6,3,15,9,-11, 
  /* [10][0][][] */ 28,46,-24,26,61,-104,-12,-19,11,49,31,-6,-7,18,17,-71,23,38,-27,36,-79,-16,-8,-29,-59,-22,-47,50,10,13,6,38,-8,-15,29,-15,80,-24,-18,-3,-18,58,41,-22,-49,-16,-35,6,-15,-23,-39,-1,-8,-9,7,-16,7,28,-21,-13,3,12,-11,16,7,46,51,24,19,-1,24,54,-44,-17,-57,-12,-1,30,-16,9,32,2,-64,-33,53,-42,90,-4,-22,2,22,-22,76,35,-14,-127, 
  /* [11][0][][] */ 41,42,-31,23,-5,17,54,0,-2,-18,-26,-6,-1,2,33,-3,3,-14,-96,-4,1,13,6,-11,-41,-17,-6,0,3,21,3,-8,-8,8,11,18,6,12,-7,22,10,31,57,-95,28,-42,6,-8,-127,8,13,-47,23,20,-5,12,-19,-13,9,3,13,-17,-9,11,-54,48,-23,8,18,0,23,7,-54,-24,12,28,3,-36,-48,4,15,-2,88,46,10,-9,-8,-7,5,25,-17,2,-1,13,-21,13, 
  /* [12][0][][] */ -33,-2,5,2,-29,29,13,-3,127,10,-10,4,-4,0,-32,-43,20,26,13,86,60,35,-14,-18,-5,10,13,-21,-116,4,28,-35,2,1,-11,-18,24,-6,41,-7,-55,-22,-1,8,-4,34,2,-2,22,10,-44,9,16,2,5,-4,80,-31,13,17,24,-18,18,-11,-2,36,-37,1,-5,5,-11,-29,21,6,-78,8,29,-3,6,-63,-21,4,45,45,-23,-12,-33,-24,14,23,-7,43,-20,-31,13,5, 
  /* [13][0][][] */ 31,-9,-30,25,32,-1,10,1,-9,7,12,-1,15,-12,15,-11,18,-69,-39,14,-7,-19,13,8,6,11,-5,-1,-15,-28,-9,18,2,10,4,41,19,-3,3,19,-1,4,21,41,17,14,-10,-127,22,-7,4,10,-13,0,13,3,-10,15,22,14,9,20,-3,2,-8,-17,-21,-56,3,12,-8,-29,-12,34,-11,20,-28,4,15,-6,28,-13,-14,18,14,28,8,19,-6,3,23,-9,4,10,-10,-10, 
  /* [14][0][][] */ -113,-54,22,47,33,-24,-33,20,-18,6,-13,15,68,9,-127,6,78,-15,-14,34,-13,-10,40,10,-107,9,38,-17,-38,-82,-27,1,-2,1,29,-66,29,31,0,27,25,38,-3,-36,21,123,72,58,-110,50,7,40,-53,-7,40,-3,6,10,62,58,34,50,14,53,-3,-16,-46,49,7,76,-56,-82,-86,0,-4,44,-9,39,90,0,58,18,30,20,49,13,48,32,27,45,76,-3,-1,38,29,-27, 
  /* [15][0][][] */ 104,-33,40,0,1,72,39,-27,-27,64,15,0,-98,-5,-4,43,14,56,54,-4,17,30,-96,83,18,14,38,5,15,51,-76,-75,21,-44,40,-4,51,-45,-67,-105,-5,30,-2,32,-8,48,-37,-36,117,-51,-55,36,54,-127,64,-120,13,-73,10,31,-127,1,27,26,90,-16,-61,42,-39,76,-25,30,55,30,13,9,27,-53,71,-21,-18,-9,37,84,-15,1,-8,-53,-2,6,70,-8,-66,56,19,-19, 
};
const TfArray<16, float> quant15_scale = { 16, { 0.019258210435509682, 0.012117286212742329, 0.010337871499359608, 0.009213949553668499, 0.015166522935032845, 0.014327723532915115, 0.011841384693980217, 0.016841188073158264, 0.010143260471522808, 0.010702275671064854, 0.015911804512143135, 0.031456124037504196, 0.018699521198868752, 0.020235637202858925, 0.020145539194345474, 0.011126460507512093, } };
const TfLiteAffineQuantization quant15 = { (TfLiteFloatArray*)&quant15_scale, (TfLiteIntArray*)&g0::quant8_zero, 0 };
const MODEL_SECTION(EI_MODEL_SECTION) ALIGN(16) int32_t tensor_data16[96] = { 10899, -9045, 3303, 56487, -1621, -4358, -11656, 2539, -2865, 1295, 2691, -2073, 1514, -7079, 6744, -6018, -1438, 17196, 26148, 2595, 1100, -3145, -187, -204, 19437, -1556, -1207, -3612, -5441, -7648, 5786, -9251, 294, -1875, -259, 17146, 1584, -3157, 17825, 421, -666, 1813, -9961, -7781, -7115, 67827, 149, 14891, 27683, -12364, -290, 8702, 7642, 12, -4881, 2070, -11268, 1848, 1430, -6937, -1689, -931, -13312, -263, 1275, 18179, 29117, 35619, -12222, 468, -5894, -1083, 44453, 8910, 217, 546, 18992, 32434, -399, -8123, -1602, -6997, 684, -3314, 514, 1304, 1036, -629, 1494, -2496, -131, 403, 466, -429, 912, 53137, };
const TfArray<96, float> quant16_scale = { 96, { 0.00016653117199894041, 0.00012988550588488579, 0.00022634393826592714, 3.7566998798865825e-05, 0.00016983198293019086, 0.00014720376930199564, 0.00028153951279819012, 7.9156379797495902e-05, 0.00014227817882783711, 0.0004263159935362637, 0.0001610371982678771, 0.00030009172041900456, 8.5255902376957238e-05, 0.00038835121085867286, 0.00015584069478791207, 0.00014101759006734937, 9.9960445368196815e-05, 0.00032893189927563071, 5.96552126808092e-05, 0.00023456400958821177, 5.850742309121415e-05, 0.00017630528600420803, 0.00010892443242482841, 0.00036894434015266597, 0.0001769761584000662, 0.00020716524159070104, 0.00013296034012455493, 0.00015425734454765916, 0.00011197685671504587, 0.0001131130920839496, 0.00014121316780801862, 0.00015751285536680371, 0.00012894342944491655, 9.7630887466948479e-05, 0.00021924900647718459, 0.00013716287503484637, 0.00039336647023446858, 0.00011127118341391906, 4.9272453907178715e-05, 0.0001158939121523872, 0.00017260448657907546, 0.00034275147481821477, 0.0003329263417981565, 0.00014183219172991812, 0.00018697403720580041, 4.8605968913761899e-05, 0.00019006759976036847, 0.00023406906984746456, 9.2886664788238704e-05, 0.00017632654635235667, 0.00016357889398932457, 0.00015044269093777984, 0.00022830358648207039, 0.00023774425790179521, 0.00031353114172816277, 0.00040305985021404922, 0.00033964650356210768, 0.00019024082575924695, 0.00011565806198632345, 7.3258925112895668e-05, 0.00029173909570090473, 0.00014531287888530642, 0.00026618418633006513, 0.00012224704551044852, 0.00021707492123823613, 0.00015655448078177869, 8.2041973655577749e-05, 5.0997055950574577e-05, 0.00033044037991203368, 0.00025046573136933148, 0.00024416926316916943, 9.3732400273438543e-05, 0.00013102513912599534, 0.00013103736273478717, 0.00013212121848482639, 0.00024938548449426889, 0.00055108452215790749, 5.1872171752620488e-05, 0.00027963914908468723, 0.00023399518977385014, 0.00017828645650297403, 0.00031417456921190023, 0.00012327688455116004, 0.00014070578617975116, 0.00014002439274918288, 9.1022651758976281e-05, 0.00013009355461690575, 0.00017250768723897636, 0.00017940119141712785, 0.00010475009185029194, 0.00020241684978827834, 0.00012013759987894446, 0.00013800784654449672, 0.00042797773494385183, 0.0013964914251118898, 7.1172507887240499e-05, } };
const TfLiteAffineQuantization quant16 = { (TfLiteFloatArray*)&quant16_scale, (TfLiteIntArray*)&g0::quant6_zero, 0 };
const MODEL_SECTION(EI_MODEL_SECTION) ALIGN(16) int8_t tensor_data17[1*3*3*96] = { 
  /* [0][0][][] */ -18,5,-20,105,-16,23,-63,-53,16,-6,101,-10,4,-7,-4,56,5,16,-32,3,72,3,32,-32,2,17,44,47,22,13,23,48,-5,28,11,-15,5,48,-59,-27,21,9,27,19,-86,-55,26,-5,-11,-20,-8,-6,49,5,-10,2,-3,-35,29,-30,27,-2,127,26,-13,-10,10,-53,66,36,1,-8,79,-33,70,4,16,-127,29,65,1,16,127,-14,38,28,-29,-20,35,-6,-13,80,1,20,-1,13, -49,11,-9,10,52,-8,-11,-127,37,13,-127,-4,-17,-11,5,94,17,-30,-14,-16,75,-96,127,27,-62,-32,-105,-17,27,35,-49,17,117,13,-12,-1,-23,127,-63,-127,9,-18,-30,15,46,-127,127,-45,-77,50,50,8,38,-64,31,57,36,42,-99,85,127,34,3,-21,43,-38,-96,-1,36,-30,-19,46,-48,-49,107,-3,-30,-60,-33,64,-65,63,-16,8,-10,47,53,-41,-28,54,-12,71,-127,-30,24,-127, 0,-5,-24,-74,9,18,37,21,-4,-2,6,62,0,-12,-10,7,-13,17,-16,16,4,26,24,-31,1,-32,9,11,-7,5,46,-80,42,18,10,-23,12,4,-31,-21,7,3,-16,9,22,-32,21,1,6,-7,6,-4,5,5,-6,8,-7,45,7,-1,12,-18,3,-17,-26,-17,30,-51,-106,-6,39,-17,-127,-23,-12,17,10,-11,6,10,-12,24,-36,-3,-40,20,26,36,-24,-16,25,-12,19,6,-1,-45, 
  /* [0][1][][] */ -41,58,-18,38,-84,-16,-10,-44,25,95,-44,-21,-31,-24,-7,63,127,-24,-90,-14,57,-127,-28,17,-36,-48,-127,-6,37,36,-50,28,-127,-75,-56,3,65,-3,-50,45,-19,87,0,-3,34,-50,-12,-32,127,43,-3,21,44,9,-37,-17,30,9,-123,127,-37,-88,20,127,-59,-35,-85,127,-36,127,-19,53,-36,-56,38,8,-36,-69,127,48,127,36,6,-1,127,28,-94,47,-38,-35,-102,39,96,103,29,-59, 127,127,127,127,-45,-127,127,23,127,-127,15,-127,-107,127,127,127,-15,-127,-62,-127,127,24,-67,127,127,127,-56,-127,127,127,-127,127,-10,-127,-122,127,-127,-45,98,108,-127,-127,127,127,127,-118,-107,127,-13,127,-127,-127,-127,127,127,-127,127,-127,-41,39,-104,-27,-70,-69,127,127,-70,127,127,-107,-127,127,-42,127,-127,-127,-127,125,-74,127,-42,127,79,127,-37,-127,-24,-107,-127,-126,-23,-127,-22,-127,-127,116, -24,64,-38,3,127,69,-22,48,5,23,-12,-5,-26,-30,-12,-8,-103,-21,-127,37,29,79,-12,-113,-34,-41,123,72,10,35,72,9,123,-47,127,-4,54,4,-96,14,36,24,-23,1,-24,-53,-12,-43,81,15,-11,41,-5,-4,-76,-14,23,20,127,-89,2,127,1,-37,-110,-28,-74,100,15,-17,110,25,-16,-58,13,48,-29,-6,-42,-4,-45,8,47,24,-89,34,127,-46,32,-22,127,-11,-113,34,34,19, 
  /* [0][2][][] */ -5,-40,-22,-61,-4,13,40,31,-1,10,-20,51,24,-34,-7,8,41,2,14,21,-11,31,-16,-24,1,-24,10,3,-9,-8,49,-76,-38,67,-27,-25,30,-35,-61,17,9,9,-35,20,12,-77,-12,-1,-10,5,17,-7,7,1,-23,6,-2,44,-48,34,-6,-12,5,17,-5,-10,21,-54,-56,11,-21,-12,-119,-32,1,18,14,-11,56,18,23,22,-40,15,12,25,-20,10,4,25,23,-7,19,40,-6,-30, -28,-11,-27,23,-44,72,-25,65,6,-6,54,-12,127,-7,-18,-16,-2,-39,-55,23,-24,80,-44,-109,-48,-48,101,69,13,42,54,-1,-121,64,-14,-23,-28,-27,-127,-4,45,-13,-15,37,-26,-45,-18,-48,-61,28,68,25,-10,-81,29,52,16,26,75,-55,20,-58,-8,0,20,-26,-127,-57,-12,-27,-63,24,36,-47,-30,-7,-44,24,-55,2,49,33,19,11,6,62,-90,127,15,127,-30,-20,113,-22,47,84, -10,-34,-26,29,13,64,-44,12,4,-6,1,14,12,-51,-10,-13,-44,-6,18,19,-24,6,-21,5,-3,19,-2,52,-1,-6,34,29,16,42,20,-23,-7,-26,-29,8,11,-11,21,9,-75,-32,-13,4,-2,-15,-1,-4,-8,8,-18,-5,-1,-49,14,-29,-20,48,10,-28,-10,-2,36,-56,45,7,51,-20,31,-56,-18,23,11,11,-5,23,-29,32,89,-14,-17,54,38,-9,108,12,2,-20,9,-23,-6,-51, 
};
const TfArray<96, float> quant17_scale = { 96, { 0.0070775747299194336, 0.0055201337672770023, 0.0096196169033646584, 0.0015965974889695644, 0.0072178593836724758, 0.0062561603263020515, 0.011965428479015827, 0.0033641459885984659, 0.0060468227602541447, 0.018118429929018021, 0.0068440809845924377, 0.012753897346556187, 0.0036233756691217422, 0.016504926607012749, 0.0066232294775545597, 0.0059932474978268147, 0.0042483187280595303, 0.01397960539907217, 0.0025353464297950268, 0.0099689699709415436, 0.0024865653831511736, 0.0074929744005203247, 0.0046292883343994617, 0.015680134296417236, 0.0075214868411421776, 0.0088045224547386169, 0.0056508146226406097, 0.0065559367649257183, 0.0047590164467692375, 0.0048073064535856247, 0.0060015595518052578, 0.0066942963749170303, 0.0054800957441329956, 0.0041493126191198826, 0.0093180825933814049, 0.0058294222690165043, 0.016718074679374695, 0.0047290250658988953, 0.0020940792746841908, 0.0049254912883043289, 0.0073356903158128262, 0.014566937461495399, 0.014149368740618229, 0.0060278680175542831, 0.0079463962465524673, 0.0020657535642385483, 0.0080778729170560837, 0.0099479351192712784, 0.0039476831443607807, 0.0074938777834177017, 0.0069521027617156506, 0.006393813993781805, 0.0097029022872447968, 0.010104130953550339, 0.013325072824954987, 0.017130043357610703, 0.014434975571930408, 0.008085235022008419, 0.0049154674634337425, 0.0031135042663663626, 0.012398910708725452, 0.0061757974326610565, 0.011312827467918396, 0.0051954993978142738, 0.009225684218108654, 0.0066535654477775097, 0.0034867837093770504, 0.0021673748269677162, 0.014043715782463551, 0.010644793510437012, 0.010377193801105022, 0.0039836270734667778, 0.0055685681290924549, 0.0055690878070890903, 0.0056151514872908592, 0.010598883032798767, 0.023421091958880424, 0.0022045671939849854, 0.011884663254022598, 0.0099447956308722496, 0.0075771743431687355, 0.013352419249713421, 0.0052392673678696156, 0.005979995708912611, 0.00595103669911623, 0.0038684627506881952, 0.005528976209461689, 0.0073315766640007496, 0.0076245502568781376, 0.00445187883451581, 0.0086027160286903381, 0.0051058479584753513, 0.0058653336018323898, 0.018189053982496262, 0.059350885450839996, 0.0030248316470533609, } };
const TfLiteAffineQuantization quant17 = { (TfLiteFloatArray*)&quant17_scale, (TfLiteIntArray*)&g0::quant6_zero, 3 };
const MODEL_SECTION(EI_MODEL_SECTION) ALIGN(16) int32_t tensor_data18[96] = { 19168, 1357, 5625, -694, 4745, 5032, 13973, 5185, -1289, 16060, 6222, 1303, 6738, 34276, -357, -1503, 8457, 11589, 2116, -119, -802, 16065, 4904, 2582, 8907, 4606, 3936, 3373, 56, -59, 6429, 9786, 13439, 1628, 5980, -473, 16562, 4920, 744, 4568, 564, 13306, 11680, 4750, 3857, 10667, 16583, 4774, 4538, 3760, 319, -725, 12993, 6577, 8266, 15379, -342, 8054, 2958, 3373, 11657, 7415, 2241, 4614, 7379, 4607, 5446, -789, 18604, 7003, 9919, -1248, -1496, 3486, 1830, 3054, 21049, 13284, 16570, -2194, 6389, -5401, -1941, 556, 7460, 4751, 6076, 5033, 12596, 4544, 7517, 3529, 15037, 20759, -10348, 12055, };
const TfArray<96, float> quant18_scale = { 96, { 0.00013400305761024356, 0.00025501332129351795, 0.00024021089484449476, 0.00078445201506838202, 0.00033577613066881895, 0.00018736363563220948, 0.00022433583217207342, 0.00067714403849095106, 0.00037041131872683764, 0.00011198365245945752, 0.00023143735597841442, 0.00062255328521132469, 0.00040959159377962351, 0.00014081447443459183, 0.00028239144012331963, 0.00045433029299601912, 0.00026230706134811044, 0.0002020776883000508, 0.00021873170044273138, 0.00077165849506855011, 0.00035997910890728235, 0.00015459793212357908, 0.00030498369596898556, 0.00029705578344874084, 0.00019784565665759146, 0.00045550192589871585, 0.00036559574073180556, 0.00026226058253087103, 0.00075624888995662332, 0.00034915751894004643, 0.00022504552907776088, 0.00019373663235455751, 0.00014551213826052845, 0.00065651844488456845, 0.00027756855706684291, 0.00063266512006521225, 0.00013771586236543953, 0.00053673784714192152, 0.00058949319645762444, 0.00021385411673691124, 0.00084781413897871971, 0.00014249957166612148, 0.00018382963025942445, 0.00015958910807967186, 0.00029531243490055203, 0.00030456797685474157, 0.00017116138769779354, 0.00030848832102492452, 0.0003486603673081845, 0.00023522415722254664, 0.00039139573345892131, 0.00092465704074129462, 0.00020501438120845705, 0.00024427974130958319, 0.00028389864019118249, 0.00012072647223249078, 0.00040054842247627676, 0.00021605085930787027, 0.00026142119895666838, 0.0004826679069083184, 0.00014698176528327167, 0.00018875271780416369, 0.00047181386617012322, 0.0005995078245177865, 0.00014305458171293139, 0.00024825779837556183, 0.00035787720116786659, 0.00043475229176692665, 0.00014497002121061087, 0.00016204356506932527, 0.00020222440070938319, 0.00037047103978693485, 0.00025706345331855118, 0.00037776475073769689, 0.00022636997164227068, 0.00041228212649002671, 0.00011244243796681985, 0.00033855036599561572, 0.00010041367931989953, 0.000553942343685776, 0.0001680081186350435, 0.00038613466313108802, 0.0001986688730539754, 0.00045429982128553092, 0.00021202347124926746, 0.00033014814835041761, 0.00026329062529839575, 0.00027621272602118552, 0.00013353995746001601, 0.00034909119131043553, 0.00018411818018648773, 0.00048486384912393987, 0.00014069621101953089, 0.00013317687262315303, 0.00028301205020397902, 0.00027087653870694339, } };
const TfLiteAffineQuantization quant18 = { (TfLiteFloatArray*)&quant18_scale, (TfLiteIntArray*)&g0::quant6_zero, 0 };
const MODEL_SECTION(EI_MODEL_SECTION) ALIGN(16) int8_t tensor_data19[96*1*1*16] = { 
  /* [0][0][][] */ 63,-21,127,103,71,-44,35,-39,121,-30,-73,-89,48,87,-47,-77, 
  /* [1][0][][] */ 43,76,-6,-21,97,-16,13,43,65,62,-37,127,14,-16,127,-100, 
  /* [2][0][][] */ 29,-64,-9,3,-59,29,-55,84,-82,-73,3,66,-3,-127,77,-91, 
  /* [3][0][][] */ 126,127,-11,30,-125,-20,-55,-35,-6,11,102,-74,-49,83,-55,-30, 
  /* [4][0][][] */ 0,-7,17,5,-29,37,-12,47,-64,-35,1,1,-11,-127,22,-3, 
  /* [5][0][][] */ 127,-49,-20,-9,-19,-96,-24,20,4,6,-123,7,11,2,-3,39, 
  /* [6][0][][] */ -127,-76,-5,107,-52,9,-33,41,-112,-60,-74,-26,18,60,-4,96, 
  /* [7][0][][] */ -18,19,-79,54,52,-127,-33,44,10,-33,14,4,-2,15,-34,7, 
  /* [8][0][][] */ 30,-55,-13,-9,13,26,-62,-67,-6,11,-69,6,-127,5,2,21, 
  /* [9][0][][] */ 13,-42,67,114,-6,33,7,-64,127,-70,9,-9,-17,51,-76,11, 
  /* [10][0][][] */ -127,-67,9,-46,99,51,35,62,120,-75,-78,36,67,-79,-99,61, 
  /* [11][0][][] */ 46,-11,-127,20,56,31,-21,45,-9,-39,-20,-5,-5,23,-43,10, 
  /* [12][0][][] */ 111,-66,20,2,12,-82,-80,-20,57,-18,-127,-24,-59,-2,8,50, 
  /* [13][0][][] */ 31,-80,20,-58,90,5,-87,-127,40,-60,23,6,20,-4,27,-2, 
  /* [14][0][][] */ -63,39,-97,-59,94,-126,74,-54,65,43,-3,-92,17,127,-13,31, 
  /* [15][0][][] */ 19,1,62,36,49,-38,-29,-8,18,-56,-55,-7,-127,-48,-12,51, 
  /* [16][0][][] */ -127,49,5,17,-5,92,44,83,-11,32,120,10,1,17,12,-45, 
  /* [17][0][][] */ -10,0,-45,-39,-44,14,49,73,-32,127,-21,8,-7,70,64,5, 
  /* [18][0][][] */ 11,127,-59,-6,1,-3,72,-73,19,118,-69,102,16,-50,52,-96, 
  /* [19][0][][] */ 11,-12,27,8,1,34,-7,8,6,-2,-45,-11,-127,-5,-14,35, 
  /* [20][0][][] */ 103,-51,-20,-88,-19,13,25,-95,-70,23,-127,-52,41,-5,51,17, 
  /* [21][0][][] */ 54,-23,127,58,-18,50,17,2,10,28,-18,-11,-8,93,-2,-18, 
  /* [22][0][][] */ 37,-1,26,14,-8,-1,19,127,25,-1,4,32,-1,48,25,21, 
  /* [23][0][][] */ -14,11,-74,5,12,-127,5,28,-12,-14,-15,-16,-48,-2,-3,35, 
  /* [24][0][][] */ 46,-62,-2,-66,65,0,-35,-16,32,23,65,101,-47,83,127,40, 
  /* [25][0][][] */ -127,-89,-36,12,17,12,16,-23,-49,6,-68,22,13,43,26,43, 
  /* [26][0][][] */ 8,4,37,-4,-7,5,-38,59,-86,-63,0,13,8,-127,34,-11, 
  /* [27][0][][] */ -95,36,-39,23,25,-21,6,32,24,-20,127,25,-17,-2,-8,-27, 
  /* [28][0][][] */ -9,-1,13,24,-8,-3,16,72,18,8,-29,-9,-127,-14,-9,42, 
  /* [29][0][][] */ -3,64,35,-40,38,-22,22,-28,-127,30,-31,-4,9,31,-80,15, 
  /* [30][0][][] */ -6,-13,-127,-34,21,-71,-6,19,-28,-12,-10,-29,-31,-30,17,17, 
  /* [31][0][][] */ 118,-27,-127,-1,28,20,-39,56,-25,-13,-76,-41,-4,-11,-97,42, 
  /* [32][0][][] */ -114,56,21,51,14,109,28,46,23,-2,127,6,-28,18,-20,-25, 
  /* [33][0][][] */ 10,-17,127,-11,-55,21,6,-29,1,16,-13,18,-2,24,42,11, 
  /* [34][0][][] */ -7,-25,-51,-97,17,8,-3,-29,-22,-46,-40,-127,-12,4,47,5, 
  /* [35][0][][] */ 0,-39,36,48,58,-20,20,-18,-118,43,-9,36,-23,127,-46,-45, 
  /* [36][0][][] */ -123,40,-28,11,-8,59,42,82,5,29,127,1,-7,22,3,-36, 
  /* [37][0][][] */ -39,14,127,-31,-67,-69,19,-45,16,19,0,8,-1,-73,67,8, 
  /* [38][0][][] */ 19,-13,-12,14,33,-57,-58,5,-29,-26,67,-17,127,31,-15,19, 
  /* [39][0][][] */ -34,-7,2,-26,-63,-71,71,127,-22,-1,10,-36,-7,57,68,51, 
  /* [40][0][][] */ 67,-6,-13,-17,-11,74,-9,13,8,-4,13,-4,127,10,-28,-14, 
  /* [41][0][][] */ -12,-10,-33,-127,31,0,-32,-78,-5,-42,18,-35,-14,-16,-24,29, 
  /* [42][0][][] */ 46,39,6,105,-103,-5,-102,8,-69,-64,70,-83,-54,127,-38,3, 
  /* [43][0][][] */ 25,113,-35,127,29,15,32,-81,-40,74,-12,18,14,-44,49,41, 
  /* [44][0][][] */ -8,-16,-127,22,46,83,-35,54,-24,-21,36,-19,0,-39,-60,8, 
  /* [45][0][][] */ -2,19,-7,-127,-25,1,50,-6,-12,20,-34,24,4,-90,38,-29, 
  /* [46][0][][] */ 17,24,57,-23,12,7,-49,49,18,-44,-32,10,12,127,52,-11, 
  /* [47][0][][] */ 12,-18,18,-41,-34,22,-61,57,-10,-31,21,34,3,-127,41,8, 
  /* [48][0][][] */ 0,-6,7,-127,0,-11,-11,0,17,-32,18,-9,1,43,-14,56, 
  /* [49][0][][] */ 32,-43,3,127,88,17,3,54,-54,12,35,42,-14,49,127,-7, 
  /* [50][0][][] */ -13,-24,87,-17,14,127,-40,-72,53,-25,117,42,108,5,-8,-75, 
  /* [51][0][][] */ 32,51,7,9,11,4,-32,19,43,4,-7,127,15,30,24,-46, 
  /* [52][0][][] */ -34,68,127,8,13,-21,20,-43,-20,20,18,43,-15,86,-110,-28, 
  /* [53][0][][] */ -15,-12,-45,-127,-58,17,31,-30,-14,55,19,7,12,-23,54,4, 
  /* [54][0][][] */ 13,4,-35,-43,29,2,-18,9,64,-24,1,-37,-3,127,28,26, 
  /* [55][0][][] */ -7,-36,-50,4,21,-58,-24,-127,15,-98,-3,-7,-31,-76,-47,-27, 
  /* [56][0][][] */ 49,43,25,57,5,-28,12,127,17,-30,0,-44,88,-21,-65,44, 
  /* [57][0][][] */ 90,-30,127,-21,-64,-60,-5,-17,24,6,-90,30,76,-36,66,15, 
  /* [58][0][][] */ 105,108,18,127,-121,-8,-10,46,1,24,84,-20,-85,-53,-34,-89, 
  /* [59][0][][] */ 109,-42,2,1,-29,-5,0,13,-19,22,-127,0,4,2,3,30, 
  /* [60][0][][] */ -127,25,1,-11,11,6,11,27,2,-2,92,-8,-30,-2,23,-15, 
  /* [61][0][][] */ -98,72,9,17,39,7,-87,-73,127,-99,84,-7,51,-47,-113,-57, 
  /* [62][0][][] */ -29,-27,-127,55,66,89,-3,85,18,-64,47,-24,-86,-10,-90,-22, 
  /* [63][0][][] */ -49,12,127,-48,-57,-69,31,-35,-4,11,8,5,-4,-59,76,20, 
  /* [64][0][][] */ 42,56,-28,25,61,-19,82,-127,-30,96,-4,-39,-4,-119,7,64, 
  /* [65][0][][] */ -2,29,13,-14,78,19,-5,-127,-17,-66,-22,-42,-16,-35,47,14, 
  /* [66][0][][] */ -127,3,-16,6,-47,23,18,-38,-76,-31,-72,56,58,21,47,85, 
  /* [67][0][][] */ -9,-58,2,127,-2,-10,-20,45,69,16,9,-28,-10,-28,-94,-22, 
  /* [68][0][][] */ 1,6,-6,127,-53,-10,6,-36,-53,38,18,-18,-37,-69,-39,-57, 
  /* [69][0][][] */ 77,90,26,127,55,-5,50,-119,26,106,22,60,-6,-26,32,-25, 
  /* [70][0][][] */ 22,-48,-5,-93,127,-53,29,0,69,-36,60,-73,17,92,79,104, 
  /* [71][0][][] */ 9,41,12,88,49,-127,-46,101,43,-99,12,17,11,-50,-59,32, 
  /* [72][0][][] */ -127,-76,-22,48,9,31,-26,30,-50,-30,-93,33,58,22,5,100, 
  /* [73][0][][] */ -9,-25,-3,62,15,-28,-9,-19,70,8,-11,7,30,127,-51,-34, 
  /* [74][0][][] */ 97,-60,11,-41,-55,-34,43,-12,-53,-16,-127,17,-124,-4,35,63, 
  /* [75][0][][] */ -22,-10,-14,127,-33,15,5,-13,-59,28,-9,-18,-7,-40,-16,-40, 
  /* [76][0][][] */ 2,-5,-8,40,34,6,-15,-127,9,-119,4,16,-21,-26,27,-36, 
  /* [77][0][][] */ 127,-32,28,60,-29,-4,-51,-4,52,-18,-37,59,29,18,-58,29, 
  /* [78][0][][] */ -22,-1,43,4,15,-5,-69,35,50,-27,-33,-27,8,127,22,-34, 
  /* [79][0][][] */ 3,21,46,22,34,58,-39,-48,16,-48,65,-20,127,-19,-23,-36, 
  /* [80][0][][] */ -114,-106,-92,127,13,27,28,-12,-95,33,-122,14,78,-92,3,65, 
  /* [81][0][][] */ 58,-4,-59,41,127,85,-44,-36,3,-99,-20,-71,-25,-5,-96,17, 
  /* [82][0][][] */ 115,106,4,40,-127,-14,-65,-12,-58,-2,103,-51,-53,98,11,-38, 
  /* [83][0][][] */ 127,40,14,-30,5,-9,-6,31,39,17,81,-26,-52,-25,-21,-75, 
  /* [84][0][][] */ 9,-65,-56,-34,40,20,-9,-127,-25,-57,19,4,-17,-5,-2,-7, 
  /* [85][0][][] */ -22,-8,-37,-46,-10,-11,78,83,-16,127,-11,-43,32,51,62,-19, 
  /* [86][0][][] */ 101,-35,3,-10,0,-45,-6,-29,-6,1,-127,-3,21,10,-5,24, 
  /* [87][0][][] */ -20,40,18,-46,-7,72,-38,56,-5,-39,32,17,3,-127,21,13, 
  /* [88][0][][] */ 1,-8,-101,-55,68,-13,-39,-127,-7,-39,-7,-25,-40,-16,25,-17, 
  /* [89][0][][] */ 19,-16,30,-127,46,19,-50,107,92,-79,44,25,-17,50,31,39, 
  /* [90][0][][] */ -18,27,-45,53,83,7,113,-89,81,127,-32,55,10,8,-19,-28, 
  /* [91][0][][] */ 33,-6,-41,-22,13,-127,-22,-17,-15,-16,-38,-14,25,-21,9,27, 
  /* [92][0][][] */ 25,0,127,58,44,11,-4,36,-36,26,-70,22,29,82,5,-5, 
  /* [93][0][][] */ 127,-33,-39,-9,-33,-49,4,36,-23,45,-126,1,-2,19,-9,45, 
  /* [94][0][][] */ 15,-13,45,72,118,-32,-14,59,19,-19,3,55,3,127,-23,-77, 
  /* [95][0][][] */ -121,42,47,33,14,44,29,2,4,11,127,-6,-28,27,-15,-30, 
};
const TfArray<96, float> quant19_scale = { 96, { 0.00041830362170003355, 0.0007960490183904767, 0.00074984179809689522, 0.002448743674904108, 0.0010481580393388867, 0.00058487389469519258, 0.00070028624031692743, 0.0021137713920325041, 0.0011562751606106758, 0.00034956791205331683, 0.00072245433693751693, 0.0019433610141277313, 0.0012785801663994789, 0.00043956615263596177, 0.00088151247473433614, 0.0014182364102452993, 0.00081881711957976222, 0.00063080526888370514, 0.00068279239349067211, 0.0024088073987513781, 0.0011237099533900619, 0.00048259255709126592, 0.00095203641103580594, 0.0009272886672988534, 0.0006175945745781064, 0.0014218938304111362, 0.0011412427993491292, 0.00081867206608876586, 0.0023607048206031322, 0.0010899293702095747, 0.000702501623891294, 0.0006047678180038929, 0.0004542303504422307, 0.0020493865013122559, 0.00086645741248503327, 0.0019749260973185301, 0.00042989352368749678, 0.0016754796961322427, 0.0018401606939733028, 0.00066756654996424913, 0.0026465347036719322, 0.00044482634984888136, 0.00057384214596822858, 0.00049817300168797374, 0.00092184660024940968, 0.00095073867123574018, 0.00053429702529683709, 0.00096297642448917031, 0.0010883774375542998, 0.0007342752069234848, 0.001221780083142221, 0.0028864073101431131, 0.00063997245160862803, 0.0007625431171618402, 0.00088621739996597171, 0.00037685947609134018, 0.0012503510806709528, 0.0006744238780811429, 0.00081605184823274612, 0.0015066950581967831, 0.00045881792902946472, 0.00058921007439494133, 0.0014728130772709846, 0.0018714222824200988, 0.00044655887177214026, 0.00077496102312579751, 0.001117148669436574, 0.0013571217423304915, 0.00045253810822032392, 0.00050583481788635254, 0.0006312632467597723, 0.0011564615415409207, 0.00080244865966960788, 0.0011792295845225453, 0.00070663599763065577, 0.0012869789497926831, 0.00035100005334243178, 0.0010568180587142706, 0.00031345110619440675, 0.0017291851108893752, 0.00052445376059040427, 0.0012053571408614516, 0.00062016432639211416, 0.0014181412989273667, 0.00066185201285406947, 0.0010305896867066622, 0.0008218874572776258, 0.00086222501704469323, 0.00041685803444124758, 0.0010897222673520446, 0.00057474290952086449, 0.0015135499415919185, 0.0004391969705466181, 0.000415724643971771, 0.00088344974210485816, 0.00084556761430576444, } };
const TfLiteAffineQuantization quant19 = { (TfLiteFloatArray*)&quant19_scale, (TfLiteIntArray*)&g0::quant6_zero, 0 };
const MODEL_SECTION(EI_MODEL_SECTION) ALIGN(16) int32_t tensor_data20[16] = { -36144, 4100, 2073, -8871, 2083, -5566, -11045, -40996, 6038, 25022, 35226, -8803, -2230, -22057, 38202, -42540, };
const TfArray<16, float> quant20_scale = { 16, { 0.00081463123206049204, 0.00076624017674475908, 0.00088306446559727192, 0.0009706788114272058, 0.0008491941262036562, 0.00096664228476583958, 0.001126557937823236, 0.00065020471811294556, 0.00047246503527276218, 0.00062581500969827175, 0.00089298101374879479, 0.00061985052889212966, 0.00098685221746563911, 0.0012908161152154207, 0.00063087837770581245, 0.00057990750065073371, } };
const TfLiteAffineQuantization quant20 = { (TfLiteFloatArray*)&quant20_scale, (TfLiteIntArray*)&g0::quant8_zero, 0 };
const MODEL_SECTION(EI_MODEL_SECTION) ALIGN(16) int8_t tensor_data21[16*1*1*48] = { 
  /* [0][0][][] */ -12,-7,-18,12,22,-6,7,102,-54,12,38,-10,20,-20,-13,17,19,-18,-5,0,59,-8,19,127,-19,80,-8,-17,29,-19,23,-19,-21,54,23,-43,20,43,13,-10,-101,-29,16,44,39,26,-117,-45, 
  /* [1][0][][] */ -33,-14,24,17,-36,7,3,54,-57,-37,2,-46,-19,-20,1,0,-22,117,-6,19,10,6,-23,-13,27,-44,14,21,-25,-87,-35,22,-24,-1,34,1,-2,-38,-1,20,-15,-34,127,14,14,2,18,-10, 
  /* [2][0][][] */ -21,-7,-12,-34,-1,-65,2,-20,-1,15,15,27,17,15,-14,9,-3,-16,-26,-13,-6,-3,0,-127,-15,73,-13,6,2,-17,-3,-7,-9,54,8,-4,19,10,28,0,-38,3,-21,-6,0,-12,15,8, 
  /* [3][0][][] */ -9,34,1,-32,1,2,3,-5,-18,-1,2,41,-127,8,-8,-4,-2,7,-16,-3,-29,7,8,14,-5,-9,5,26,-11,20,7,14,6,-1,15,18,-12,27,44,6,9,8,22,-31,6,-5,3,17, 
  /* [4][0][][] */ 37,-32,11,8,17,29,22,-24,-33,7,-8,-20,2,16,-1,16,22,-5,-80,1,-7,11,16,69,-1,-23,8,51,6,-73,23,5,12,-34,29,-127,10,38,-1,19,-21,14,6,-24,-9,-20,8,7, 
  /* [5][0][][] */ 28,0,-24,60,2,-9,4,20,0,-2,36,10,6,48,-2,1,-29,24,33,6,12,-1,7,-27,0,-53,-1,-18,-2,-12,6,8,62,-127,0,29,-17,-13,16,2,-90,58,19,0,-8,-2,-98,-11, 
  /* [6][0][][] */ 26,-2,8,7,-12,-7,3,-12,-5,3,-4,3,-18,5,7,5,2,-13,127,10,5,12,16,-31,8,2,23,-15,-13,-6,-4,6,-1,-9,33,-34,3,-45,67,15,3,-9,-4,7,-8,1,5,-9, 
  /* [7][0][][] */ -45,-11,-12,35,-7,75,-5,41,3,30,-6,127,73,0,-11,-3,-9,-21,-6,-17,-30,-7,-16,63,3,-32,-48,-28,-13,-11,-13,-16,3,-1,-24,10,6,-55,92,4,21,29,-62,-60,15,-13,-1,3, 
  /* [8][0][][] */ -46,-53,-2,7,-5,-1,-3,31,-6,-67,0,39,56,7,4,7,-14,67,-33,4,-53,18,-1,-11,-2,-1,4,48,-8,115,-8,18,-8,6,-24,-127,-123,73,34,28,23,-6,108,-22,11,28,17,33, 
  /* [9][0][][] */ -29,8,-9,30,23,-31,-7,-6,65,-38,12,65,-56,5,10,-2,-12,24,-38,-23,51,5,-15,-20,1,10,45,-23,7,11,13,-5,-1,15,72,-107,-14,-127,-93,4,-33,30,60,12,-1,8,-13,-49, 
  /* [10][0][][] */ -20,-9,-36,-127,47,88,9,-16,-4,32,21,8,52,-50,-31,22,32,-39,57,-34,35,-30,44,53,-50,-112,4,-35,51,31,48,-49,-31,-82,24,-4,15,-38,5,-30,-34,-65,-15,14,16,16,14,-40, 
  /* [11][0][][] */ -6,51,-11,66,38,-64,-80,-21,4,65,-19,6,-5,53,-2,-78,13,50,9,-4,-51,-105,18,-1,14,-41,13,-16,55,-40,31,-85,45,-23,-46,-89,85,21,11,-127,-6,70,96,-70,-14,-52,34,25, 
  /* [12][0][][] */ 127,-4,-14,10,0,19,3,103,19,-8,-53,-23,-1,14,-5,0,-6,4,-6,-8,7,3,-2,20,-5,15,-3,9,-1,17,-4,4,7,-63,-11,8,-17,-13,-31,-2,-14,-80,3,-121,-50,-8,78,-5, 
  /* [13][0][][] */ 11,2,1,6,7,-11,1,2,-1,8,6,20,-4,4,4,-1,7,2,11,3,11,-12,10,-2,1,2,16,127,10,-5,7,-5,3,1,-39,21,10,-6,4,-12,-12,-5,-1,4,0,-3,-9,-11, 
  /* [14][0][][] */ 64,-21,46,-71,49,30,41,-97,-54,-54,-2,125,-77,-3,67,13,56,23,-58,66,21,20,69,-16,20,60,-29,-115,31,-31,56,53,-1,72,-127,-53,-40,47,91,4,-36,7,54,-3,3,3,14,-25, 
  /* [15][0][][] */ -2,-59,-70,-35,55,23,77,-46,-15,16,-24,-41,81,15,-97,67,68,47,75,-82,-105,-19,51,-10,-95,39,31,52,55,46,43,-45,20,66,104,127,-13,-118,-15,-31,100,56,113,-48,1,-35,-20,74, 
};
const TfArray<4, int> tensor_dimension21 = { 4, { 16,1,1,48 } };
const TfArray<16, float> quant21_scale = { 16, { 0.034621827304363251, 0.032565206289291382, 0.037530239671468735, 0.041253849864006042, 0.036090750247240067, 0.041082296520471573, 0.04787871241569519, 0.027633700519800186, 0.020079763606190681, 0.026597138494253159, 0.037951692938804626, 0.026343647390604019, 0.041941218078136444, 0.05485968291759491, 0.02681233175098896, 0.02464606799185276, } };
const TfLiteAffineQuantization quant21 = { (TfLiteFloatArray*)&quant21_scale, (TfLiteIntArray*)&g0::quant8_zero, 0 };
const MODEL_SECTION(EI_MODEL_SECTION) ALIGN(16) int32_t tensor_data22[48] = { 1707, 39277, -1216, 36916, 4065, 128774, -1696, 46084, 646, 35697, 24942, -295, 1588, 31347, -1196, -1846, -596, 338, -521, -2186, -590, -3137, -1062, -16599, -4711, 43425, 124352, 102385, 3099, 4596, -1503, 669, 24692, -80, 57230, -2185, 66567, 275, 46003, 3273, 1003, 55821, -895, 2377, 55265, -894, -13, 50082, };
const TfArray<1, int> tensor_dimension22 = { 1, { 48 } };
const TfArray<48, float> quant22_scale = { 48, { 8.0455269198864698e-05, 3.7111243727849796e-05, 0.00013852790289092809, 5.8237419580109417e-05, 0.00015407598402816802, 6.3975363445933908e-05, 0.00017320689221378416, 0.00012968787632416934, 9.3694645329378545e-05, 4.0440278098685667e-05, 4.8290599806932732e-05, 0.00010609803575789556, 4.1515319026075304e-05, 3.4897853765869513e-05, 0.00015365018043667078, 0.00021427171304821968, 0.00016078646876849234, 6.6169552155770361e-05, 0.00014481191465165466, 0.00013000213948544115, 0.00010511289292480797, 0.0001662565628066659, 0.00010832392581505701, 0.00010898227628786117, 8.8103246525861323e-05, 0.00010264363663736731, 2.5699839170556515e-05, 6.9050780439283699e-05, 0.00011948391329497099, 9.8731339676305652e-05, 0.00011674283450702205, 0.00013913455768488348, 5.1327067922102287e-05, 0.00015805529255885631, 2.4560367819503881e-05, 5.8167581300949678e-05, 8.7770262325648218e-05, 9.7718060715124011e-05, 0.00013102030789013952, 8.517635433236137e-05, 0.00010181491234106943, 0.0001056956170941703, 8.5687730461359024e-05, 8.77411148394458e-05, 3.7096160667715594e-05, 0.00014490564353764057, 0.00011945245205424726, 3.4044747735606506e-05, } };
const TfArray<48, int> quant22_zero = { 48, { 0,0,0,0,0,0,0,0,0,0,0,0,0,0,0,0,0,0,0,0,0,0,0,0,0,0,0,0,0,0,0,0,0,0,0,0,0,0,0,0,0,0,0,0,0,0,0,0 } };
const TfLiteAffineQuantization quant22 = { (TfLiteFloatArray*)&quant22_scale, (TfLiteIntArray*)&quant22_zero, 0 };
const MODEL_SECTION(EI_MODEL_SECTION) ALIGN(16) int8_t tensor_data23[1*3*3*48] = { 
  /* [0][0][][] */ 70,-92,97,71,54,-34,107,-64,59,-90,-78,48,51,-41,-71,-89,101,77,49,78,66,-73,-82,51,-32,-39,-63,-64,-67,61,-63,-114,-12,42,68,64,-66,53,-51,-23,50,-73,57,61,-92,12,74,-34, 83,-97,127,85,-77,-68,-57,-84,95,-104,-64,74,79,-108,-95,93,-37,95,83,127,85,-115,53,72,-51,-76,-67,-80,56,78,-30,-127,-84,79,80,84,-82,83,-83,-16,76,-95,82,90,-73,-127,92,-104, 35,-47,69,38,19,-41,-47,-39,43,-31,4,34,29,-80,-54,-1,-53,37,34,70,33,-54,32,26,-27,-44,-44,-23,32,29,88,-89,-84,43,34,34,-29,39,-37,-11,41,-40,34,43,-5,-8,35,-74, 
  /* [0][1][][] */ 93,-112,-42,94,56,-82,127,-89,87,-113,-72,82,83,-111,-13,-127,127,107,75,-38,84,108,-127,73,73,-75,-94,-99,-127,86,-70,-10,-88,71,106,96,-85,79,-80,88,84,-101,87,91,-88,108,93,-92, 127,-127,-66,127,-127,-127,-91,-127,127,-127,-127,127,127,-127,-21,97,-64,127,127,-50,127,127,70,127,127,-127,-127,-127,54,127,-29,15,-127,127,127,127,-127,127,-127,127,127,-127,127,127,-127,-10,127,-127, 64,-79,-34,66,38,-62,-48,-62,55,-43,-59,58,48,-53,-16,10,-62,50,59,-29,57,64,52,63,65,-64,-62,-45,37,54,127,14,-63,68,48,49,-49,60,-59,56,59,-57,53,63,-61,-67,59,-57, 
  /* [0][2][][] */ 44,-49,-47,50,26,-54,64,-42,41,-72,-4,39,55,-73,83,-79,73,50,34,-31,26,-10,-76,29,-23,-43,-49,-49,-74,31,-42,89,-72,36,49,42,-26,37,-42,-88,47,-49,41,45,-24,16,40,-74, 72,-74,-49,80,-57,-65,-72,-66,50,-77,-65,60,73,-48,127,33,-46,59,61,-43,56,-18,42,65,-48,-66,-78,-61,32,60,-24,116,-53,63,58,58,-49,61,-66,-106,67,-66,61,62,-86,50,63,-53, 40,-40,-27,46,28,-21,-17,-33,14,-26,-50,28,31,6,67,24,-34,21,29,-32,28,0,40,40,-25,-29,-49,-24,34,33,62,66,2,32,16,22,-22,30,-28,-55,27,-31,26,30,-63,9,32,-5, 
};
const TfArray<4, int> tensor_dimension23 = { 4, { 1,3,3,48 } };
